{"learner":{"attributes":{"scikit_learn":"{\"_estimator_type\": \"classifier\"}"},"feature_names":[],"feature_types":[],"gradient_booster":{"model":{"gbtree_model_param":{"num_parallel_tree":"1","num_trees":"300"},"iteration_indptr":[0,3,6,9,12,15,18,21,24,27,30,33,36,39,42,45,48,51,54,57,60,63,66,69,72,75,78,81,84,87,90,93,96,99,102,105,108,111,114,117,120,123,126,129,132,135,138,141,144,147,150,153,156,159,162,165,168,171,174,177,180,183,186,189,192,195,198,201,204,207,210,213,216,219,222,225,228,231,234,237,240,243,246,249,252,255,258,261,264,267,270,273,276,279,282,285,288,291,294,297,300],"tree_info":[0,1,2,0,1,2,0,1,2,0,1,2,0,1,2,0,1,2,0,1,2,0,1,2,0,1,2,0,1,2,0,1,2,0,1,2,0,1,2,0,1,2,0,1,2,0,1,2,0,1,2,0,1,2,0,1,2,0,1,2,0,1,2,0,1,2,0,1,2,0,1,2,0,1,2,0,1,2,0,1,2,0,1,2,0,1,2,0,1,2,0,1,2,0,1,2,0,1,2,0,1,2,0,1,2,0,1,2,0,1,2,0,1,2,0,1,2,0,1,2,0,1,2,0,1,2,0,1,2,0,1,2,0,1,2,0,1,2,0,1,2,0,1,2,0,1,2,0,1,2,0,1,2,0,1,2,0,1,2,0,1,2,0,1,2,0,1,2,0,1,2,0,1,2,0,1,2,0,1,2,0,1,2,0,1,2,0,1,2,0,1,2,0,1,2,0,1,2,0,1,2,0,1,2,0,1,2,0,1,2,0,1,2,0,1,2,0,1,2,0,1,2,0,1,2,0,1,2,0,1,2,0,1,2,0,1,2,0,1,2,0,1,2,0,1,2,0,1,2,0,1,2,0,1,2,0,1,2,0,1,2,0,1,2,0,1,2,0,1,2,0,1,2,0,1,2,0,1,2,0,1,2,0,1,2,0,1,2,0,1,2,0,1,2,0,1,2,0,1,2],"trees":[{"base_weights":[2.7205902E-1,3.7283903E-1,-3.0200018E-2,2.9492417E-1,5.743122E-1,-1.4758807E-1,3.380836E-1,3.387131E-1,-2.061506E-2,6.0261786E-1,-3.3689845E-1,-4.5128077E-2,-3.9449546E-1,8.6150366E-1,7.80856E-2,1.1797956E-1,3.9182982E-1,8.049922E-1,-1.2256702E-1,2.6339436E-1,6.6771156E-1,5.8407074E-1,-5.579869E-1,3.5496837E-1,-1.1404816E-1,-5.2548665E-1,-1.3953494E-1,9.364985E-1,-5.806452E-1,2.2082014E-1,-4.8148155E-1,2.926829E-1,-1.5447414E-1,4.370253E-1,-1.970742E-2,-1.2000004E-1,1.0114286E0,-2.2749828E-1,3.3886006E-1,9.475862E-1,3.4451038E-2,-2.9556695E-2,6.96797E-1,9.438202E-1,-1.6363637E-1,-5.932585E-1,1.2857142E-1,-2.9712465E-1,4.9478075E-1,-4.834811E-1,-6.2239308E-2,1.4093956E-1,-5.56022E-1,1.0118501E-1,-5.857386E-1,9.817184E-1,-1.8679248E-1,-7.663455E-9,-2.0000003E-1,1.0622706E-1,9.111111E-1,-9.795923E-2,-6.632861E-1,1.2620957E-1,-4.7239836E-2,-1.0876646E-1,1.6343132E-2,-3.0780686E-2,1.3855438E-1,3.663717E-1,-1.88598E-2,1.6229507E-1,-1.972603E-1,3.377282E-1,-1.7560977E-1,-2.042945E-1,-5.035973E-2,-1.1454547E-1,1.44623E-1,3.5746923E-1,1.6363624E-2,-6.678735E-2,8.908418E-2,9.2947096E-2,-1.9140275E-1,2.1854012E-1,5.5920273E-2,-3.600001E-2,3.5753426E-1,-1.9424464E-1,4.864864E-2,-1.1818183E-1,2.8800002E-1,1.7184904E-1,-1.1900829E-1,-1.7185524E-1,6.8275854E-2,9.248999E-3,-8.7779105E-2,1.85567E-1,-1.918033E-1,-1.6920586E-1,2.5714284E-1,-2.6577197E-2,1.470914E-1,-4.6153862E-2,-2.0395014E-1,3.1562296E-1,3.3834577E-2,1.02415755E-1,-9.272118E-2,3.4434783E-1,-1.17391326E-1,1.5428571E-1,-1.57047E-1,-1.1293513E-8,-2.2044946E-1],"categories":[],"categories_nodes":[],"categories_segments":[],"categories_sizes":[],"default_left":[0,0,0,0,0,0,0,0,0,0,0,0,0,0,0,0,0,0,0,0,0,0,0,0,0,0,0,0,0,0,0,0,0,0,0,0,0,0,0,0,0,0,0,0,0,0,0,0,0,0,0,0,0,0,0,0,0,0,0,0,0,0,0,0,0,0,0,0,0,0,0,0,0,0,0,0,0,0,0,0,0,0,0,0,0,0,0,0,0,0,0,0,0,0,0,0,0,0,0,0,0,0,0,0,0,0,0,0,0,0,0,0,0,0,0,0,0],"id":0,"left_children":[1,3,5,7,9,11,13,15,17,19,21,23,25,27,29,31,33,35,37,39,41,43,45,47,49,51,53,55,57,59,61,63,65,67,69,71,73,75,77,79,81,83,85,87,-1,89,-1,91,93,95,97,99,101,103,105,107,-1,-1,-1,109,111,113,115,-1,-1,-1,-1,-1,-1,-1,-1,-1,-1,-1,-1,-1,-1,-1,-1,-1,-1,-1,-1,-1,-1,-1,-1,-1,-1,-1,-1,-1,-1,-1,-1,-1,-1,-1,-1,-1,-1,-1,-1,-1,-1,-1,-1,-1,-1,-1,-1,-1,-1,-1,-1,-1,-1],"loss_changes":[2.9840356E2,1.1515149E2,1.0598294E2,7.3233154E1,5.3017273E1,4.7005802E1,8.0572525E1,5.451892E1,5.4539417E1,4.3684998E1,1.3017947E1,3.6295063E1,1.8128342E1,2.1801987E1,3.1814539E1,4.3079613E1,6.977173E1,1.3721405E1,2.799283E1,5.031878E1,3.380542E1,5.6167116E0,2.0211897E0,1.7783474E1,2.1451252E1,7.3974457E0,2.0073353E1,1.3811218E1,5.16129E-1,2.4978731E1,5.582836E0,3.1831036E1,1.5406385E1,4.531787E1,2.0006104E1,5.290456E0,1.1308598E1,1.260461E1,1.1250797E1,1.7486633E1,1.6389093E1,1.4170619E1,2.5714417E1,2.7515602E0,0E0,2.1303215E0,0E0,4.610924E0,1.1336697E1,8.892914E0,2.1136189E1,6.5653443E0,4.3724976E0,9.044375E0,2.5550041E0,1.102861E1,0E0,0E0,0E0,2.6766935E1,1.4322704E1,7.3614025E0,2.5994854E0,0E0,0E0,0E0,0E0,0E0,0E0,0E0,0E0,0E0,0E0,0E0,0E0,0E0,0E0,0E0,0E0,0E0,0E0,0E0,0E0,0E0,0E0,0E0,0E0,0E0,0E0,0E0,0E0,0E0,0E0,0E0,0E0,0E0,0E0,0E0,0E0,0E0,0E0,0E0,0E0,0E0,0E0,0E0,0E0,0E0,0E0,0E0,0E0,0E0,0E0,0E0,0E0,0E0,0E0],"parents":[2147483647,0,0,1,1,2,2,3,3,4,4,5,5,6,6,7,7,8,8,9,9,10,10,11,11,12,12,13,13,14,14,15,15,16,16,17,17,18,18,19,19,20,20,21,21,22,22,23,23,24,24,25,25,26,26,27,27,28,28,29,29,30,30,31,31,32,32,33,33,34,34,35,35,36,36,37,37,38,38,39,39,40,40,41,41,42,42,43,43,45,45,47,47,48,48,49,49,50,50,51,51,52,52,53,53,54,54,55,55,59,59,60,60,61,61,62,62],"right_children":[2,4,6,8,10,12,14,16,18,20,22,24,26,28,30,32,34,36,38,40,42,44,46,48,50,52,54,56,58,60,62,64,66,68,70,72,74,76,78,80,82,84,86,88,-1,90,-1,92,94,96,98,100,102,104,106,108,-1,-1,-1,110,112,114,116,-1,-1,-1,-1,-1,-1,-1,-1,-1,-1,-1,-1,-1,-1,-1,-1,-1,-1,-1,-1,-1,-1,-1,-1,-1,-1,-1,-1,-1,-1,-1,-1,-1,-1,-1,-1,-1,-1,-1,-1,-1,-1,-1,-1,-1,-1,-1,-1,-1,-1,-1,-1,-1,-1],"split_conditions":[7.0413464E-1,6.260854E-1,4.4699705E-1,6.970778E-1,1.1759242E0,1.4054317E0,-1.2025532E0,-1.3217041E0,-1.2914524E0,-8.186237E-1,6.417538E-2,-5.828415E-1,-4.6090278E-1,2.204415E0,1.1047938E0,-1.0847335E0,7.635888E-1,-2.611158E0,7.0049834E-1,1.8985738E-1,-9.840842E-1,2.8892918E-2,1.5358136E0,-6.700402E-2,-7.963061E-1,-1.778675E0,3.162591E-1,1.8045783E0,2.0481925E-1,1.2218512E0,-7.569033E-3,-2.7256143E-1,-1.5812681E0,-1.4044869E0,-2.0722044E0,-6.778099E-2,1.6968857E0,-1.2498814E0,-5.298187E-1,-3.3945188E-1,9.318902E-1,-7.1579075E-1,1.6887141E0,-9.2116743E-1,-1.6363637E-1,2.5775173E0,1.2857142E-1,2.7950513E-1,1.7359492E0,1.96045E0,1.1367122E0,-3.919217E-1,2.3116636E0,7.9307956E-1,-7.723983E-2,1.7591859E0,-1.8679248E-1,-7.663455E-9,-2.0000003E-1,1.0342095E0,2.1740657E-1,-5.9818123E-2,-2.792473E-1,1.2620957E-1,-4.7239836E-2,-1.0876646E-1,1.6343132E-2,-3.0780686E-2,1.3855438E-1,3.663717E-1,-1.88598E-2,1.6229507E-1,-1.972603E-1,3.377282E-1,-1.7560977E-1,-2.042945E-1,-5.035973E-2,-1.1454547E-1,1.44623E-1,3.5746923E-1,1.6363624E-2,-6.678735E-2,8.908418E-2,9.2947096E-2,-1.9140275E-1,2.1854012E-1,5.5920273E-2,-3.600001E-2,3.5753426E-1,-1.9424464E-1,4.864864E-2,-1.1818183E-1,2.8800002E-1,1.7184904E-1,-1.1900829E-1,-1.7185524E-1,6.8275854E-2,9.248999E-3,-8.7779105E-2,1.85567E-1,-1.918033E-1,-1.6920586E-1,2.5714284E-1,-2.6577197E-2,1.470914E-1,-4.6153862E-2,-2.0395014E-1,3.1562296E-1,3.3834577E-2,1.02415755E-1,-9.272118E-2,3.4434783E-1,-1.17391326E-1,1.5428571E-1,-1.57047E-1,-1.1293513E-8,-2.2044946E-1],"split_indices":[22,1,1,7,15,22,0,14,0,4,17,0,1,1,11,1,16,0,4,0,22,2,0,7,12,1,0,7,20,0,7,0,14,12,8,12,11,18,17,16,0,5,12,2,0,14,0,1,16,5,16,6,2,4,5,20,0,0,0,22,8,12,15,0,0,0,0,0,0,0,0,0,0,0,0,0,0,0,0,0,0,0,0,0,0,0,0,0,0,0,0,0,0,0,0,0,0,0,0,0,0,0,0,0,0,0,0,0,0,0,0,0,0,0,0,0,0],"split_type":[0,0,0,0,0,0,0,0,0,0,0,0,0,0,0,0,0,0,0,0,0,0,0,0,0,0,0,0,0,0,0,0,0,0,0,0,0,0,0,0,0,0,0,0,0,0,0,0,0,0,0,0,0,0,0,0,0,0,0,0,0,0,0,0,0,0,0,0,0,0,0,0,0,0,0,0,0,0,0,0,0,0,0,0,0,0,0,0,0,0,0,0,0,0,0,0,0,0,0,0,0,0,0,0,0,0,0,0,0,0,0,0,0,0,0,0,0],"sum_hessian":[9.794666E3,7.345333E3,2.4493333E3,5.2986665E3,2.0466665E3,1.8577777E3,5.9155554E2,4.6528887E3,6.457777E2,1.9853333E3,6.133333E1,1.3137777E3,5.4399994E2,1.9555554E2,3.9599997E2,9.031111E2,3.7497776E3,7.022222E1,5.7555554E2,3.2044443E2,1.6648888E3,1.1555555E1,4.9777775E1,1.9244443E2,1.1213333E3,3.5866666E2,1.8533333E2,1.8622221E2,9.333333E0,3.1599997E2,7.999999E1,5.5022217E2,3.5288885E2,3.3786665E3,3.7111108E2,1.2888888E1,5.733333E1,4.693333E2,1.0622221E2,7.955555E1,2.4088887E2,6.6666664E1,1.5982222E3,8.888888E0,2.6666665E0,4.8444443E1,1.3333333E0,3.3777775E1,1.5866666E2,1.3688889E2,9.844444E2,1.5555554E1,3.4311108E2,1.20888885E2,6.444444E1,1.8133333E2,4.8888884E0,1.3333333E0,7.9999995E0,2.7199997E2,4.3999996E1,2.6222221E1,5.3777775E1,4.2844443E2,1.2177777E2,1.7644443E2,1.7644443E2,1.4844444E2,3.230222E3,1.1555555E1,3.5955554E2,5.7777777E0,7.1111107E0,5.3777775E1,3.5555553E0,5.333333E1,4.1599997E2,1.7333332E1,8.8888885E1,6.2222218E1,1.7333332E1,1.2177777E2,1.1911111E2,4.3111107E1,2.3555553E1,1.5044443E3,9.377777E1,1.7777777E0,7.1111107E0,4.5333332E1,3.111111E0,3.1999998E1,1.7777777E0,1.4622221E2,1.2444444E1,1.2177777E2,1.5111111E1,7.017777E2,2.8266666E2,9.777777E0,5.7777777E0,3.4177777E2,1.3333333E0,8.177777E1,3.9111107E1,1.1999999E1,5.2444443E1,1.6755554E2,1.3777777E1,1.7377777E2,9.822221E1,3.7333332E1,6.666666E0,1.0666666E1,1.5555554E1,5.333333E0,4.8444443E1],"tree_param":{"num_deleted":"0","num_feature":"25","num_nodes":"117","size_leaf_vector":"1"}},{"base_weights":[2.6399425E-1,1.7614344E-1,5.065932E-1,5.8261145E-2,2.7735505E-1,6.15903E-1,1.7216936E-1,6.140546E-1,2.2820132E-2,2.259045E-1,5.676914E-1,5.148836E-1,8.4822935E-1,-2.5040922E-1,3.6733145E-1,-2.3076928E-1,6.6943616E-1,-2.5434375E-2,1.816379E-1,3.901656E-1,1.6717836E-1,8.854097E-1,4.389853E-1,1.5233696E-1,5.736916E-1,9.8180264E-1,5.872061E-1,-3.2124358E-1,9.4285715E-1,5.074184E-1,-8.964786E-2,2.8800002E-1,-5.049505E-1,7.055589E-1,-4.7368425E-1,-4.1273236E-2,4.25648E-1,6.4521194E-1,1.3155672E-1,8.206203E-2,4.888926E-1,1.0769561E-1,4.872695E-1,9.4725883E-1,-5.217392E-1,8.416107E-1,3.37986E-1,7.8066915E-1,3.6659833E-2,4.919142E-1,8.191126E-1,7.0783406E-1,1.099959E0,4.115523E-1,1.1125828E0,-3.5108256E-1,3.4054056E-1,1.2077922E0,1.6216213E-1,3.5057732E-1,8.8939565E-1,-3.7681165E-1,4.6153843E-1,1.2857142E-1,-2.0224722E-1,1.7323187E-1,2.8922495E-1,-7.663455E-9,-1.8E-1,1.0650887E-1,-1.7393274E-2,3.1935483E-1,4.6285704E-2,3.3049184E-1,6.59824E-2,3.2070212E-2,2.6756757E-1,2.1053985E-1,-2.3076938E-2,1.264506E-1,2.8326693E-1,2.3533776E-2,1.942857E-1,2.0542936E-1,7.939543E-2,3.3958563E-1,1.8405253E-1,-7.663455E-9,-1.894737E-1,3.30563E-1,1.7007874E-1,8.172901E-2,3.0226415E-1,2.791837E-1,-1.6363637E-1,2.0918919E-1,-1.734774E-2,2.3059572E-1,1.2442064E-1,3.2914287E-1,2.2404526E-1,-1.2261528E-8,2.329626E-1,3.0061102E-1,3.7123847E-1,1.5377277E-1,-2.6141094E-2,3.5700715E-1,2.195121E-2,-1.4154755E-1,-2.2117216E-2,3.8769233E-1,1.2857142E-1,-1.4400001E-1,2.5714284E-1,1.3834873E-1,-8.10811E-2,3.5681418E-1,1.0093457E-1,1.82741E-2,-1.7043881E-1,-4.6153862E-2,2.3225807E-1],"categories":[],"categories_nodes":[],"categories_segments":[],"categories_sizes":[],"default_left":[0,0,0,0,0,0,0,0,0,0,0,0,0,0,0,0,0,0,0,0,0,0,0,0,0,0,0,0,0,0,0,0,0,0,0,0,0,0,0,0,0,0,0,0,0,0,0,0,0,0,0,0,0,0,0,0,0,0,0,0,0,0,0,0,0,0,0,0,0,0,0,0,0,0,0,0,0,0,0,0,0,0,0,0,0,0,0,0,0,0,0,0,0,0,0,0,0,0,0,0,0,0,0,0,0,0,0,0,0,0,0,0,0,0,0,0,0,0,0,0,0,0,0],"id":1,"left_children":[1,3,5,7,9,11,13,15,17,19,21,23,25,27,29,31,33,35,37,39,41,43,45,47,49,51,53,55,57,59,61,-1,63,65,67,69,71,73,75,77,79,81,83,85,87,89,91,93,95,97,99,101,103,105,107,109,-1,111,113,115,117,119,121,-1,-1,-1,-1,-1,-1,-1,-1,-1,-1,-1,-1,-1,-1,-1,-1,-1,-1,-1,-1,-1,-1,-1,-1,-1,-1,-1,-1,-1,-1,-1,-1,-1,-1,-1,-1,-1,-1,-1,-1,-1,-1,-1,-1,-1,-1,-1,-1,-1,-1,-1,-1,-1,-1,-1,-1,-1,-1,-1,-1],"loss_changes":[2.0868109E2,8.5803925E1,9.507306E1,6.5463936E1,5.7680023E1,4.5607788E1,5.3102707E1,9.475624E0,2.396041E1,3.166185E1,2.3406067E1,2.9119507E1,2.0098846E1,1.751766E1,2.8220005E1,4.729079E0,8.065109E0,1.7152771E1,1.6829512E1,2.628511E1,4.6110817E1,1.5009048E1,1.6636665E1,1.396702E1,2.3246094E1,1.1871307E1,1.8296349E1,8.7857E0,2.2171993E0,1.987777E1,1.6652697E1,0E0,2.0615668E0,5.467819E0,3.7894738E-1,1.5364952E1,1.3955355E1,1.3496037E1,1.2254651E1,2.0865509E1,1.9707474E1,3.2259087E1,1.6511192E1,9.175018E0,4.393592E-1,5.29311E0,1.4400646E1,6.4508076E0,1.0256517E1,1.8611786E1,5.069992E0,5.863064E0,2.4119263E0,7.797489E0,3.9644165E0,6.324398E0,0E0,9.591103E-3,2.2461777E0,1.6640335E1,1.5763504E1,5.8129854E0,7.066998E0,0E0,0E0,0E0,0E0,0E0,0E0,0E0,0E0,0E0,0E0,0E0,0E0,0E0,0E0,0E0,0E0,0E0,0E0,0E0,0E0,0E0,0E0,0E0,0E0,0E0,0E0,0E0,0E0,0E0,0E0,0E0,0E0,0E0,0E0,0E0,0E0,0E0,0E0,0E0,0E0,0E0,0E0,0E0,0E0,0E0,0E0,0E0,0E0,0E0,0E0,0E0,0E0,0E0,0E0,0E0,0E0,0E0,0E0,0E0,0E0],"parents":[2147483647,0,0,1,1,2,2,3,3,4,4,5,5,6,6,7,7,8,8,9,9,10,10,11,11,12,12,13,13,14,14,15,15,16,16,17,17,18,18,19,19,20,20,21,21,22,22,23,23,24,24,25,25,26,26,27,27,28,28,29,29,30,30,32,32,33,33,34,34,35,35,36,36,37,37,38,38,39,39,40,40,41,41,42,42,43,43,44,44,45,45,46,46,47,47,48,48,49,49,50,50,51,51,52,52,53,53,54,54,55,55,57,57,58,58,59,59,60,60,61,61,62,62],"right_children":[2,4,6,8,10,12,14,16,18,20,22,24,26,28,30,32,34,36,38,40,42,44,46,48,50,52,54,56,58,60,62,-1,64,66,68,70,72,74,76,78,80,82,84,86,88,90,92,94,96,98,100,102,104,106,108,110,-1,112,114,116,118,120,122,-1,-1,-1,-1,-1,-1,-1,-1,-1,-1,-1,-1,-1,-1,-1,-1,-1,-1,-1,-1,-1,-1,-1,-1,-1,-1,-1,-1,-1,-1,-1,-1,-1,-1,-1,-1,-1,-1,-1,-1,-1,-1,-1,-1,-1,-1,-1,-1,-1,-1,-1,-1,-1,-1,-1,-1,-1,-1,-1,-1],"split_conditions":[6.592128E-1,-1.2773566E-1,4.4699705E-1,-1.1483204E0,4.8146603E-1,1.3405038E0,-1.2025532E0,-2.3441305E0,9.260448E-2,-1.3217041E0,-7.535901E-1,-5.828415E-1,-4.6090278E-1,2.1217005E0,1.5375996E0,-1.1786718E0,1.4277018E0,8.7501615E-1,-1.6603684E0,-1.381802E0,7.024877E-1,2.3002505E0,6.0539294E-2,-4.5656882E-2,1.1216812E0,-3.6826035E-1,4.2094103E-1,2.1160157E0,1.2240593E0,7.366066E-1,1.0342095E0,2.8800002E-1,-2.27259E0,-7.1351126E-2,1.7150813E-1,-1.0959051E0,-1.675029E0,-4.8679195E-2,1.0992597E0,-2.5673046E0,7.2680026E-1,1.1918343E0,6.64924E-2,2.340531E-1,5.773697E-1,2.67828E-2,1.0878028E0,2.046838E-1,4.5953918E-1,2.9403958E-1,-1.4614333E-1,-1.778675E0,5.693437E-1,1.9077399E0,1.9077399E0,1.2656066E0,3.4054056E-1,1.8077103E0,1.5504631E0,1.2218512E0,9.751934E-1,6.1878985E-1,-4.3635488E-1,1.2857142E-1,-2.0224722E-1,1.7323187E-1,2.8922495E-1,-7.663455E-9,-1.8E-1,1.0650887E-1,-1.7393274E-2,3.1935483E-1,4.6285704E-2,3.3049184E-1,6.59824E-2,3.2070212E-2,2.6756757E-1,2.1053985E-1,-2.3076938E-2,1.264506E-1,2.8326693E-1,2.3533776E-2,1.942857E-1,2.0542936E-1,7.939543E-2,3.3958563E-1,1.8405253E-1,-7.663455E-9,-1.894737E-1,3.30563E-1,1.7007874E-1,8.172901E-2,3.0226415E-1,2.791837E-1,-1.6363637E-1,2.0918919E-1,-1.734774E-2,2.3059572E-1,1.2442064E-1,3.2914287E-1,2.2404526E-1,-1.2261528E-8,2.329626E-1,3.0061102E-1,3.7123847E-1,1.5377277E-1,-2.6141094E-2,3.5700715E-1,2.195121E-2,-1.4154755E-1,-2.2117216E-2,3.8769233E-1,1.2857142E-1,-1.4400001E-1,2.5714284E-1,1.3834873E-1,-8.10811E-2,3.5681418E-1,1.0093457E-1,1.82741E-2,-1.7043881E-1,-4.6153862E-2,2.3225807E-1],"split_indices":[22,8,1,13,0,21,0,3,11,14,4,0,1,1,3,2,0,5,7,0,15,6,1,2,16,6,0,21,12,7,22,0,6,2,3,22,12,4,14,22,11,8,4,3,0,23,0,1,15,19,9,1,2,17,17,4,0,4,7,0,4,18,10,0,0,0,0,0,0,0,0,0,0,0,0,0,0,0,0,0,0,0,0,0,0,0,0,0,0,0,0,0,0,0,0,0,0,0,0,0,0,0,0,0,0,0,0,0,0,0,0,0,0,0,0,0,0,0,0,0,0,0,0],"split_type":[0,0,0,0,0,0,0,0,0,0,0,0,0,0,0,0,0,0,0,0,0,0,0,0,0,0,0,0,0,0,0,0,0,0,0,0,0,0,0,0,0,0,0,0,0,0,0,0,0,0,0,0,0,0,0,0,0,0,0,0,0,0,0,0,0,0,0,0,0,0,0,0,0,0,0,0,0,0,0,0,0,0,0,0,0,0,0,0,0,0,0,0,0,0,0,0,0,0,0,0,0,0,0,0,0,0,0,0,0,0,0,0,0,0,0,0,0,0,0,0,0,0,0],"sum_hessian":[9.794666E3,7.1919995E3,2.6026665E3,3.3231108E3,3.8688887E3,1.9608888E3,6.417777E2,1.9822221E2,3.1248887E3,3.2879998E3,5.8088885E2,1.3688888E3,5.9199994E2,2.0266666E2,4.3911108E2,1.1999999E1,1.8622221E2,2.3973333E3,7.2755554E2,8.644444E2,2.4235554E3,1.6577777E2,4.1511108E2,1.9155554E2,1.1773333E3,3.8977774E2,2.0222221E2,1.9199998E2,1.0666666E1,3.3599997E2,1.0311111E2,1.7777777E0,1.0222221E1,1.8088889E2,5.333333E0,2.3168887E3,8.044444E1,6.977777E1,6.577777E2,2.1022221E2,6.5422217E2,2.0448888E3,3.7866666E2,1.591111E2,6.666666E0,8.177777E1,3.333333E2,2.8888887E1,1.6266666E2,8.8533325E2,2.9199997E2,1.1955555E2,2.702222E2,1.5288889E2,4.9333332E1,1.8888887E2,3.111111E0,7.5555553E0,3.111111E0,2.3955554E2,9.6444435E1,6.799999E1,3.511111E1,1.3333333E0,8.888888E0,1.2311111E2,5.7777775E1,1.3333333E0,3.9999998E0,9.2888885E1,2.2239998E3,2.311111E1,5.733333E1,3.2888885E1,3.6888885E1,6.3822217E2,1.9555553E1,4.222222E1,1.6799998E2,5.7155554E2,8.2666664E1,1.9408888E3,1.0399999E2,1.9955554E2,1.791111E2,1.00888885E2,5.8222218E1,1.3333333E0,5.333333E0,4.0444443E1,4.1333332E1,3.048889E2,2.8444443E1,2.6222221E1,2.6666665E0,1.9555553E1,1.431111E2,1.911111E2,6.9422217E2,5.733333E1,2.3466666E2,1.0666666E1,1.08888885E2,1.6266666E2,1.0755555E2,1.2711111E2,2.5777777E1,4.5777775E1,3.5555553E0,1.311111E2,5.7777775E1,6.222222E0,1.3333333E0,1.7777777E0,1.3333333E0,2.0355554E2,3.5999996E1,6.1777775E1,3.4666664E1,2.0888887E1,4.7111107E1,1.1999999E1,2.311111E1],"tree_param":{"num_deleted":"0","num_feature":"25","num_nodes":"123","size_leaf_vector":"1"}},{"base_weights":[-5.360534E-1,-5.588029E-1,-4.7543234E-1,-5.32699E-1,-5.8923674E-1,-9.9792145E-2,-4.8289284E-1,-4.7754785E-1,-5.753045E-1,-5.91558E-1,-8.2758665E-2,-6.350365E-1,1.10481545E-1,-4.5189762E-1,-5.497383E-1,-3.7014672E-1,-5.0922513E-1,-5.776187E-1,2.459016E-1,-5.6172055E-1,-6.156946E-1,-3.0769235E-1,6.486486E-1,-2.0880002E-1,-7.663455E-9,-2.3076928E-1,4.0414503E-1,-2.6662007E-1,-4.6953E-1,-4.6263352E-1,-5.934267E-1,-4.683224E-1,-2.3992074E-1,-2.3076928E-1,-5.1680344E-1,-5.869173E-1,-4.2746788E-1,-1.5517244E-1,7.317073E-1,-3.3059794E-1,-5.772306E-1,-4.3209884E-1,-6.240187E-1,-1.956522E-1,1.578947E-1,2.8800002E-1,-7.663455E-9,9.677415E-2,-5.647059E-1,-7.692312E-2,1.0235294E0,7.8947365E-1,-3.084722E-1,-3.6750853E-1,-4.9147522E-1,-5.6470597E-1,-3.2387927E-1,-6.0185766E-1,-9.6774235E-2,-1.4540263E-1,4.736841E-2,-8.104267E-2,2.4E-1,2.8536585E-1,-1.16723575E-1,-1.6059448E-1,-1.1527096E-1,-1.7707126E-1,-7.461142E-2,-7.485495E-2,-1.6849318E-1,3.1034482E-1,-7.663455E-9,-1.1291515E-1,1.4693877E-1,-1.7824651E-1,-1.2473031E-1,-3.5294134E-2,-1.523077E-1,-1.8765363E-1,2.195121E-2,2.1724138E-1,-9.729732E-2,-9.473686E-2,1.7999999E-1,-1.972603E-1,-7.663455E-9,1.7999999E-1,-7.128715E-2,3.1034475E-2,3.8769233E-1,-3.600001E-2,3.512195E-1,1.5450632E-2,-1.13569595E-1,-5.1705584E-2,-1.2527318E-1,-1.4978394E-1,-6.446993E-2,-1.7688987E-1,1.3846143E-2,3.7190072E-2,-1.1284406E-1,-1.8617192E-1,-1.1757722E-1,2.8800002E-1,-1.2857145E-1],"categories":[],"categories_nodes":[],"categories_segments":[],"categories_sizes":[],"default_left":[0,0,0,0,0,0,0,0,0,0,0,0,0,0,0,0,0,0,0,0,0,0,0,0,0,0,0,0,0,0,0,0,0,0,0,0,0,0,0,0,0,0,0,0,0,0,0,0,0,0,0,0,0,0,0,0,0,0,0,0,0,0,0,0,0,0,0,0,0,0,0,0,0,0,0,0,0,0,0,0,0,0,0,0,0,0,0,0,0,0,0,0,0,0,0,0,0,0,0,0,0,0,0,0,0,0,0],"id":2,"left_children":[1,3,5,7,9,11,13,15,17,19,21,23,25,27,29,31,33,35,37,39,41,43,45,-1,-1,47,49,51,53,55,57,59,61,63,65,67,69,-1,71,73,75,77,79,-1,81,-1,-1,83,85,87,89,91,93,95,97,99,101,103,105,-1,-1,-1,-1,-1,-1,-1,-1,-1,-1,-1,-1,-1,-1,-1,-1,-1,-1,-1,-1,-1,-1,-1,-1,-1,-1,-1,-1,-1,-1,-1,-1,-1,-1,-1,-1,-1,-1,-1,-1,-1,-1,-1,-1,-1,-1,-1,-1],"loss_changes":[1.3243652E1,5.340088E0,7.461487E0,8.751709E0,3.8032227E0,6.0852146E0,5.1948853E0,5.5275574E0,4.251404E0,2.0029297E0,2.8501544E0,5.89314E-1,4.023837E0,5.7569885E0,2.8751373E0,4.8269196E0,2.612976E0,2.7600708E0,2.8912575E0,5.078308E0,2.4698486E0,2.187995E0,8.302702E-1,0E0,0E0,2.108539E0,6.4684505E0,7.261468E0,3.4973755E0,3.7969017E0,2.2349548E0,2.321476E0,5.499502E0,7.127202E0,2.8855286E0,2.1306152E0,2.9505806E0,0E0,1.0092514E0,3.7444382E0,3.5134583E0,1.8656816E0,1.8287964E0,0E0,1.9641929E0,0E0,0E0,2.3348045E0,4.9508452E-1,1.5567404E0,2.2019033E0,2.3365338E0,3.8911657E0,2.8083763E0,2.8045654E0,2.4719734E0,2.8893795E0,1.8719025E0,4.0346546E0,0E0,0E0,0E0,0E0,0E0,0E0,0E0,0E0,0E0,0E0,0E0,0E0,0E0,0E0,0E0,0E0,0E0,0E0,0E0,0E0,0E0,0E0,0E0,0E0,0E0,0E0,0E0,0E0,0E0,0E0,0E0,0E0,0E0,0E0,0E0,0E0,0E0,0E0,0E0,0E0,0E0,0E0,0E0,0E0,0E0,0E0,0E0,0E0],"parents":[2147483647,0,0,1,1,2,2,3,3,4,4,5,5,6,6,7,7,8,8,9,9,10,10,11,11,12,12,13,13,14,14,15,15,16,16,17,17,18,18,19,19,20,20,21,21,22,22,25,25,26,26,27,27,28,28,29,29,30,30,31,31,32,32,33,33,34,34,35,35,36,36,38,38,39,39,40,40,41,41,42,42,44,44,47,47,48,48,49,49,50,50,51,51,52,52,53,53,54,54,55,55,56,56,57,57,58,58],"right_children":[2,4,6,8,10,12,14,16,18,20,22,24,26,28,30,32,34,36,38,40,42,44,46,-1,-1,48,50,52,54,56,58,60,62,64,66,68,70,-1,72,74,76,78,80,-1,82,-1,-1,84,86,88,90,92,94,96,98,100,102,104,106,-1,-1,-1,-1,-1,-1,-1,-1,-1,-1,-1,-1,-1,-1,-1,-1,-1,-1,-1,-1,-1,-1,-1,-1,-1,-1,-1,-1,-1,-1,-1,-1,-1,-1,-1,-1,-1,-1,-1,-1,-1,-1,-1,-1,-1,-1,-1,-1],"split_conditions":[6.349857E-1,1.246227E-1,-1.5789961E0,4.842805E-2,2.1544535E0,-9.495472E-2,1.8197566E-1,-4.0076777E-1,3.1956992E0,-1.0535424E-1,2.5241075E0,1.0571626E0,4.793478E-1,-1.0106492E0,5.328308E-1,-2.7334693E-1,-1.2208979E0,1.8223575E0,-1.8685565E0,-1.4870908E0,-2.408602E0,3.741171E-2,1.139442E0,-2.0880002E-1,-7.663455E-9,1.2537225E-2,1.3228856E-1,-1.205983E0,-2.7996305E-1,9.883706E-1,2.2396648E0,1.024581E0,6.6311437E-1,-1.3867494E0,5.2867997E-1,1.1433035E0,-1.3511735E0,-1.5517244E-1,-1.5138276E-1,-1.2731546E0,8.904798E-1,1.6099499E-1,2.5860004E0,-1.956522E-1,-8.012778E-2,2.8800002E-1,-7.663455E-9,-3.5922918E-1,1.7525125E0,-1.2544072E0,-1.725825E0,-3.2023332E-1,-9.3673813E-1,-4.3635488E-1,1.6887141E0,1.1129247E0,-1.2395746E0,1.8411908E0,7.661212E-2,-1.4540263E-1,4.736841E-2,-8.104267E-2,2.4E-1,2.8536585E-1,-1.16723575E-1,-1.6059448E-1,-1.1527096E-1,-1.7707126E-1,-7.461142E-2,-7.485495E-2,-1.6849318E-1,3.1034482E-1,-7.663455E-9,-1.1291515E-1,1.4693877E-1,-1.7824651E-1,-1.2473031E-1,-3.5294134E-2,-1.523077E-1,-1.8765363E-1,2.195121E-2,2.1724138E-1,-9.729732E-2,-9.473686E-2,1.7999999E-1,-1.972603E-1,-7.663455E-9,1.7999999E-1,-7.128715E-2,3.1034475E-2,3.8769233E-1,-3.600001E-2,3.512195E-1,1.5450632E-2,-1.13569595E-1,-5.1705584E-2,-1.2527318E-1,-1.4978394E-1,-6.446993E-2,-1.7688987E-1,1.3846143E-2,3.7190072E-2,-1.1284406E-1,-1.8617192E-1,-1.1757722E-1,2.8800002E-1,-1.2857145E-1],"split_indices":[23,2,10,1,15,3,1,10,11,12,7,12,14,12,19,4,12,12,9,22,24,23,2,0,0,14,12,2,2,23,23,0,24,14,17,13,10,0,17,20,8,12,10,0,20,0,0,9,12,11,5,17,1,10,12,21,9,6,11,0,0,0,0,0,0,0,0,0,0,0,0,0,0,0,0,0,0,0,0,0,0,0,0,0,0,0,0,0,0,0,0,0,0,0,0,0,0,0,0,0,0,0,0,0,0,0,0],"split_type":[0,0,0,0,0,0,0,0,0,0,0,0,0,0,0,0,0,0,0,0,0,0,0,0,0,0,0,0,0,0,0,0,0,0,0,0,0,0,0,0,0,0,0,0,0,0,0,0,0,0,0,0,0,0,0,0,0,0,0,0,0,0,0,0,0,0,0,0,0,0,0,0,0,0,0,0,0,0,0,0,0,0,0,0,0,0,0,0,0,0,0,0,0,0,0,0,0,0,0,0,0,0,0,0,0,0,0],"sum_hessian":[9.794666E3,7.1159995E3,2.6786665E3,3.8404443E3,3.2755554E3,5.2444443E1,2.6262222E3,1.679111E3,2.1613333E3,3.2604443E3,1.5111111E1,1.4222221E1,3.822222E1,1.7995554E3,8.266666E2,3.853333E2,1.2937777E3,2.1555554E3,5.7777777E0,1.4688888E3,1.7915554E3,1.1999999E1,3.111111E0,1.2888888E1,1.3333333E0,1.7777777E1,2.0444443E1,1.5777777E2,1.6417777E3,2.7999997E2,5.466666E2,2.1822221E2,1.671111E2,3.511111E1,1.2586666E3,2.027111E3,1.2844444E2,2.222222E0,3.5555553E0,9.377777E1,1.3751111E3,7.999999E1,1.7115554E3,6.666666E0,5.333333E0,1.7777777E0,1.3333333E0,9.333333E0,8.444444E0,1.1999999E1,8.444444E0,5.333333E0,1.5244444E2,2.9377777E2,1.3479999E3,1.5955554E2,1.20444435E2,5.373333E2,9.333333E0,2.1288887E2,5.333333E0,1.631111E2,3.9999998E0,3.5555553E0,3.1555553E1,1.1017777E3,1.5688889E2,2.0066665E3,2.0444443E1,5.6444443E1,7.199999E1,2.222222E0,1.3333333E0,8.933333E1,4.444444E0,1.2422222E3,1.3288889E2,1.5999999E1,6.3999996E1,1.7079999E3,3.5555553E0,2.222222E0,3.111111E0,5.333333E0,3.9999998E0,7.1111107E0,1.3333333E0,1.7777777E0,1.0222221E1,2.222222E0,6.222222E0,1.7777777E0,3.5555553E0,2.4888887E1,1.2755555E2,6.0888885E1,2.3288887E2,1.3102222E3,3.7777775E1,1.5333333E2,6.222222E0,1.2444444E1,1.0799999E2,4.915555E2,4.5777775E1,1.7777777E0,7.5555553E0],"tree_param":{"num_deleted":"0","num_feature":"25","num_nodes":"107","size_leaf_vector":"1"}},{"base_weights":[2.0551424E-1,2.749926E-1,-3.2660533E-2,3.0069175E-1,-9.669033E-2,2.7321708E-1,-1.4086615E-1,2.383167E-1,4.6700636E-1,1.3938125E-3,-4.0165552E-1,-6.973727E-2,4.80175E-1,-2.6673034E-1,3.1272024E-2,2.6562425E-1,-1.3371503E-1,4.8969322E-1,-1.7695926E-1,1.8757401E-1,-2.1588174E-1,3.698853E-1,-5.026359E-1,-6.0077935E-1,7.0368655E-2,5.657346E-1,1.3393362E-2,-1.902363E-1,-5.146462E-1,2.4494562E-1,-1.1487322E-1,1.1221322E-1,3.1614277E-1,7.759851E-1,-2.782965E-1,-7.314988E-2,5.121873E-1,-6.925058E-1,4.2999935E-1,-5.096802E-2,4.0087566E-1,-2.50944E-1,8.675666E-1,-1.8344465E-1,8.38075E-1,-6.729459E-1,-1.4331707E-1,-3.2027617E-1,-2.0639734E-1,3.4817263E-1,-2.2071518E-1,5.836308E-2,6.4463615E-1,-1.7938785E-1,6.7265755E-1,-1.4256203E-1,-5.803759E-1,-5.5570984E-1,5.7685453E-2,7.2879875E-1,4.4687875E-2,-2.5217438E-1,4.1219923E-1,-7.173384E-2,5.4169457E-2,1.06018536E-1,-1.1310352E-2,-1.6794012E-1,2.5231832E-1,-1.1146477E-1,9.906386E-3,4.8718117E-2,-2.0403637E-1,7.810601E-2,1.6635755E-1,-2.2312172E-1,-7.4820146E-2,-1.7652518E-1,2.680248E-1,1.2378401E-1,-7.6633334E-2,4.3094758E-2,2.3418835E-1,-1.20757684E-1,-8.358833E-3,2.911356E-1,9.853577E-2,-1.328029E-1,3.2329082E-1,-6.976166E-2,-2.0918587E-1,-1.4517204E-1,7.994846E-2,-1.7357835E-1,1.1006336E-1,-1.19654335E-1,1.3673902E-1,7.198148E-2,-1.1765851E-1,2.0014422E-1,-3.1951405E-2,2.0322022E-1,-1.0154158E-1,-1.8607776E-1,8.12555E-2,3.010039E-1,-1.5799469E-1,-1.6318846E-2,-9.882272E-2,1.6828428E-1,-1.8415229E-1,-4.8252083E-2,-1.7673662E-1,2.2345494E-1,-1.1169048E-1,1.516242E-2,2.7788016E-1,-5.1649105E-2,1.01116024E-1,-1.4746891E-1,-2.7535353E-2,1.7828754E-1,-1.3238901E-1],"categories":[],"categories_nodes":[],"categories_segments":[],"categories_sizes":[],"default_left":[0,0,0,0,0,0,0,0,0,0,0,0,0,0,0,0,0,0,0,0,0,0,0,0,0,0,0,0,0,0,0,0,0,0,0,0,0,0,0,0,0,0,0,0,0,0,0,0,0,0,0,0,0,0,0,0,0,0,0,0,0,0,0,0,0,0,0,0,0,0,0,0,0,0,0,0,0,0,0,0,0,0,0,0,0,0,0,0,0,0,0,0,0,0,0,0,0,0,0,0,0,0,0,0,0,0,0,0,0,0,0,0,0,0,0,0,0,0,0,0,0,0,0],"id":3,"left_children":[1,3,5,7,9,11,13,15,17,19,21,23,25,27,29,31,33,35,37,39,41,43,45,47,49,51,53,55,57,59,61,63,65,67,69,71,73,75,77,79,81,83,85,-1,87,89,91,93,-1,95,97,99,101,103,105,107,109,111,113,115,117,119,121,-1,-1,-1,-1,-1,-1,-1,-1,-1,-1,-1,-1,-1,-1,-1,-1,-1,-1,-1,-1,-1,-1,-1,-1,-1,-1,-1,-1,-1,-1,-1,-1,-1,-1,-1,-1,-1,-1,-1,-1,-1,-1,-1,-1,-1,-1,-1,-1,-1,-1,-1,-1,-1,-1,-1,-1,-1,-1,-1,-1],"loss_changes":[1.6694858E2,7.463031E1,7.547301E1,7.567212E1,1.5131446E1,4.2329674E1,3.6499046E1,5.4029694E1,2.918097E1,1.5563684E1,9.7769165E0,1.679342E1,1.4840027E1,1.8353912E1,2.2269789E1,3.8340424E1,4.8104298E1,2.4395905E1,2.1734308E1,1.0562691E1,6.9623833E0,7.323251E0,6.5909824E0,9.3198395E-1,1.4554664E1,1.2538826E1,7.5699706E0,1.3776743E1,5.4102287E0,2.8029142E1,3.0761774E1,2.9536892E1,4.910736E1,4.8341904E0,9.154287E0,1.0806038E1,1.958197E1,6.641331E-1,1.5666101E1,9.460995E0,1.0583704E1,5.8305597E0,2.404213E-3,0E0,3.6855512E0,6.296997E-1,5.2111335E0,2.5274515E0,0E0,7.578106E0,7.0487533E0,4.424985E0,8.983551E0,9.326802E0,5.871395E0,1.094248E1,3.4310074E0,2.7235413E0,5.0714903E0,1.1298889E1,1.31119175E1,1.2883024E1,1.3927929E1,0E0,0E0,0E0,0E0,0E0,0E0,0E0,0E0,0E0,0E0,0E0,0E0,0E0,0E0,0E0,0E0,0E0,0E0,0E0,0E0,0E0,0E0,0E0,0E0,0E0,0E0,0E0,0E0,0E0,0E0,0E0,0E0,0E0,0E0,0E0,0E0,0E0,0E0,0E0,0E0,0E0,0E0,0E0,0E0,0E0,0E0,0E0,0E0,0E0,0E0,0E0,0E0,0E0,0E0,0E0,0E0,0E0,0E0,0E0,0E0],"parents":[2147483647,0,0,1,1,2,2,3,3,4,4,5,5,6,6,7,7,8,8,9,9,10,10,11,11,12,12,13,13,14,14,15,15,16,16,17,17,18,18,19,19,20,20,21,21,22,22,23,23,24,24,25,25,26,26,27,27,28,28,29,29,30,30,31,31,32,32,33,33,34,34,35,35,36,36,37,37,38,38,39,39,40,40,41,41,42,42,44,44,45,45,46,46,47,47,49,49,50,50,51,51,52,52,53,53,54,54,55,55,56,56,57,57,58,58,59,59,60,60,61,61,62,62],"right_children":[2,4,6,8,10,12,14,16,18,20,22,24,26,28,30,32,34,36,38,40,42,44,46,48,50,52,54,56,58,60,62,64,66,68,70,72,74,76,78,80,82,84,86,-1,88,90,92,94,-1,96,98,100,102,104,106,108,110,112,114,116,118,120,122,-1,-1,-1,-1,-1,-1,-1,-1,-1,-1,-1,-1,-1,-1,-1,-1,-1,-1,-1,-1,-1,-1,-1,-1,-1,-1,-1,-1,-1,-1,-1,-1,-1,-1,-1,-1,-1,-1,-1,-1,-1,-1,-1,-1,-1,-1,-1,-1,-1,-1,-1,-1,-1,-1,-1,-1,-1,-1,-1,-1],"split_conditions":[7.519883E-1,1.0799006E0,-5.828415E-1,6.536505E-1,8.6139816E-1,-5.3497964E-1,-1.2586978E-1,8.601303E-1,1.0394254E0,1.4604584E0,-9.909079E-1,1.4005798E-1,1.088092E0,1.386689E0,3.792E-1,-1.0786642E0,-1.2914524E0,-1.0383061E0,5.181592E-1,-9.766621E-2,1.9566159E0,-4.53772E-1,1.2798634E0,1.1998671E0,1.4054317E0,9.3300587E-1,-9.2503005E-1,4.8842323E-1,-2.6386356E-1,-3.8592142E-1,1.2111636E0,-2.0237733E-1,8.534624E-1,-1.8152229E0,6.713543E-1,-2.661793E-1,-1.9002055E0,5.544238E-1,1.0565675E0,-7.1579075E-1,3.8263866E-1,-2.056339E-1,1.0437717E0,-1.8344465E-1,-6.26074E-1,-1.3669354E0,3.8607207E-1,5.995639E-1,-2.0639734E-1,9.260448E-2,5.481407E-1,-9.616901E-2,2.1217005E0,1.0565675E0,1.3758525E-1,7.695075E-1,-3.503618E-1,-3.8592142E-1,-2.2362557E-1,-6.7323726E-1,8.398508E-1,4.4112796E-1,9.9864906E-1,-7.173384E-2,5.4169457E-2,1.06018536E-1,-1.1310352E-2,-1.6794012E-1,2.5231832E-1,-1.1146477E-1,9.906386E-3,4.8718117E-2,-2.0403637E-1,7.810601E-2,1.6635755E-1,-2.2312172E-1,-7.4820146E-2,-1.7652518E-1,2.680248E-1,1.2378401E-1,-7.6633334E-2,4.3094758E-2,2.3418835E-1,-1.20757684E-1,-8.358833E-3,2.911356E-1,9.853577E-2,-1.328029E-1,3.2329082E-1,-6.976166E-2,-2.0918587E-1,-1.4517204E-1,7.994846E-2,-1.7357835E-1,1.1006336E-1,-1.19654335E-1,1.3673902E-1,7.198148E-2,-1.1765851E-1,2.0014422E-1,-3.1951405E-2,2.0322022E-1,-1.0154158E-1,-1.8607776E-1,8.12555E-2,3.010039E-1,-1.5799469E-1,-1.6318846E-2,-9.882272E-2,1.6828428E-1,-1.8415229E-1,-4.8252083E-2,-1.7673662E-1,2.2345494E-1,-1.1169048E-1,1.516242E-2,2.7788016E-1,-5.1649105E-2,1.01116024E-1,-1.4746891E-1,-2.7535353E-2,1.7828754E-1,-1.3238901E-1],"split_indices":[24,11,0,1,8,1,1,7,16,11,2,2,10,22,0,19,0,23,22,9,0,6,12,22,22,13,0,0,1,9,4,5,17,17,4,18,10,24,3,5,8,4,1,0,16,1,3,8,0,11,8,17,1,3,1,10,15,9,1,6,2,16,12,0,0,0,0,0,0,0,0,0,0,0,0,0,0,0,0,0,0,0,0,0,0,0,0,0,0,0,0,0,0,0,0,0,0,0,0,0,0,0,0,0,0,0,0,0,0,0,0,0,0,0,0,0,0,0,0,0,0,0,0],"split_type":[0,0,0,0,0,0,0,0,0,0,0,0,0,0,0,0,0,0,0,0,0,0,0,0,0,0,0,0,0,0,0,0,0,0,0,0,0,0,0,0,0,0,0,0,0,0,0,0,0,0,0,0,0,0,0,0,0,0,0,0,0,0,0,0,0,0,0,0,0,0,0,0,0,0,0,0,0,0,0,0,0,0,0,0,0,0,0,0,0,0,0,0,0,0,0,0,0,0,0,0,0,0,0,0,0,0,0,0,0,0,0,0,0,0,0,0,0,0,0,0,0,0,0],"sum_hessian":[1.008721E4,7.8090615E3,2.2781487E3,7.3042188E3,5.0484247E2,5.9491296E2,1.6832357E3,5.313764E3,1.990455E3,3.8273962E2,1.2210284E2,2.2414331E2,3.7076962E2,9.719873E2,7.1124835E2,4.9506655E3,3.630985E2,1.9229491E3,6.7505844E1,2.0619278E2,1.7654684E2,1.3823254E1,1.0827958E2,4.6104782E1,1.7803853E2,3.1315695E2,5.761267E1,7.441487E2,2.2783861E2,2.886085E2,4.226399E2,1.2272032E3,3.7234622E3,4.9195503E1,3.13903E2,7.3810974E1,1.8491381E3,3.6425407E1,3.1080437E1,9.76966E1,1.08496185E2,1.7175688E2,4.7899632E0,4.365894E0,9.45736E0,7.286851E1,3.541107E1,1.204293E1,3.4061855E1,9.099694E1,8.7041595E1,4.2379276E1,2.7077768E2,4.514061E1,1.2472064E1,6.6433386E2,7.981482E1,2.126131E2,1.5225517E1,8.371091E1,2.0489758E2,3.357098E2,8.693007E1,1.9946402E2,1.0277393E3,3.3687996E3,3.5466266E2,1.932181E0,4.7263325E1,2.4140012E2,7.25029E1,5.3703167E1,2.0107803E1,2.6716077E2,1.5819773E3,3.204212E1,4.3832836E0,9.635491E0,2.1444944E1,2.959102E1,6.8105576E1,6.550465E1,4.299153E1,1.0178829E2,6.996859E1,3.3504674E0,1.4394956E0,1.3566289E0,8.100731E0,4.3690863E0,6.849942E1,1.9240076E1,1.6170996E1,8.867427E0,3.1755025E0,1.1118349E1,7.9878586E1,2.350362E1,6.3537975E1,8.381929E0,3.399735E1,2.623453E2,8.432369E0,2.261679E1,2.2523819E1,9.904467E0,2.5675974E0,4.5223352E2,2.1210036E2,1.8246025E0,7.799022E1,1.7040476E1,1.9557262E2,5.578396E0,9.647121E0,1.9159271E1,6.4551636E1,1.1787741E2,8.702017E1,1.3385733E2,2.0185248E2,7.1895035E1,1.5035038E1],"tree_param":{"num_deleted":"0","num_feature":"25","num_nodes":"123","size_leaf_vector":"1"}},{"base_weights":[2.0140621E-1,1.5279415E-1,4.2682996E-1,5.5300735E-2,2.2571754E-1,1.7825131E-1,5.2385765E-1,3.731578E-1,2.1188036E-2,4.980488E-1,1.8351382E-1,4.6883592E-1,-4.3680575E-2,6.828581E-1,4.3542954E-1,2.8972098E-1,7.5861204E-1,-8.82262E-3,2.1827973E-1,4.535613E-1,1.0313277E0,1.7379624E-1,8.0822045E-1,8.640083E-1,3.797738E-1,3.479322E-1,-1.2449742E-1,5.79655E-1,8.3529115E-1,3.31784E-1,6.137139E-1,8.186692E-3,4.2011952E-1,2.3273928E-1,9.650048E-1,-2.3641331E-2,3.8885462E-1,-3.0220068E-1,3.0311954E-1,4.1404817E-1,9.5194745E-1,1.0685936E0,-2.9392745E-2,-5.925896E-2,2.0012477E-1,8.841069E-1,-4.1151536E-1,9.2423177E-1,-9.873857E-3,1.3419151E-1,4.930486E-1,6.2522346E-1,-1.3982269E-1,-1.6493683E-1,6.763074E-1,5.063199E-1,9.159103E-1,5.9849465E-1,8.950248E-1,3.6749393E-1,-2.6275545E-1,6.9078594E-1,3.5394076E-1,1.8763982E-1,-4.6901457E-2,1.5447769E-1,3.287697E-3,-9.417391E-2,1.769916E-1,3.3414987E-1,1.8181224E-1,1.3842737E-2,-3.1384256E-2,2.792996E-1,6.441376E-2,9.183797E-2,-1.6259247E-1,1.1051701E-1,-1.292223E-1,1.4441925E-1,3.7464023E-2,3.027965E-1,-1.3437504E-1,1.7823473E-1,3.519516E-1,1.2519372E-1,-5.216976E-2,1.4213909E-1,5.146514E-2,5.8868495E-3,2.8885564E-1,-1.6437307E-1,-2.3642292E-2,5.7335403E-2,3.0783764E-1,-1.3429984E-1,8.619719E-2,1.0931104E-1,2.6859632E-1,2.5569603E-1,-5.178783E-2,-1.10769324E-1,1.8248977E-1,-8.50802E-2,3.0511549E-2,-1.34913E-1,2.7319974E-1,1.24355994E-1,2.234187E-1,-1.0279665E-2,2.902085E-1,2.07003E-1,-1.220152E-1,2.8538865E-1,1.7796451E-1,2.007404E-1,8.712432E-2,2.739067E-1,-1.1813102E-1,1.6524021E-1,2.584567E-1,2.7231392E-1,5.367401E-2],"categories":[],"categories_nodes":[],"categories_segments":[],"categories_sizes":[],"default_left":[0,0,0,0,0,0,0,0,0,0,0,0,0,0,0,0,0,0,0,0,0,0,0,0,0,0,0,0,0,0,0,0,0,0,0,0,0,0,0,0,0,0,0,0,0,0,0,0,0,0,0,0,0,0,0,0,0,0,0,0,0,0,0,0,0,0,0,0,0,0,0,0,0,0,0,0,0,0,0,0,0,0,0,0,0,0,0,0,0,0,0,0,0,0,0,0,0,0,0,0,0,0,0,0,0,0,0,0,0,0,0,0,0,0,0,0,0,0,0,0,0,0,0],"id":4,"left_children":[1,3,5,7,9,11,13,15,17,19,21,23,25,27,29,31,33,35,37,39,41,43,45,47,49,51,53,55,57,59,61,63,65,67,69,71,73,75,77,79,81,83,-1,85,87,89,91,93,-1,95,97,99,101,103,105,107,109,111,113,115,117,119,121,-1,-1,-1,-1,-1,-1,-1,-1,-1,-1,-1,-1,-1,-1,-1,-1,-1,-1,-1,-1,-1,-1,-1,-1,-1,-1,-1,-1,-1,-1,-1,-1,-1,-1,-1,-1,-1,-1,-1,-1,-1,-1,-1,-1,-1,-1,-1,-1,-1,-1,-1,-1,-1,-1,-1,-1,-1,-1,-1,-1],"loss_changes":[1.1038187E2,5.8943344E1,4.301599E1,3.8482193E1,5.442987E1,3.247895E1,1.7770569E1,1.0843048E1,1.896964E1,1.4618927E1,2.480249E1,7.34544E0,9.103756E0,6.7130585E0,1.5106583E1,1.0436993E1,6.351841E0,1.6415434E1,1.8805704E1,1.1199738E1,2.132328E0,2.4845032E1,6.163822E0,2.1541367E0,4.9331684E0,6.746647E0,7.820359E0,6.3439713E0,2.0447464E0,1.1266735E1,5.830368E0,9.344051E0,7.5331993E0,3.7776089E0,1.6326714E0,1.5176217E1,9.247796E0,8.90297E0,1.7637375E1,1.0597939E1,3.863758E0,1.6215019E0,0E0,2.255849E1,2.8356567E1,4.0184746E0,1.5433657E-1,2.558607E0,0E0,5.3055377E0,6.020664E0,5.86788E0,3.4276443E0,7.2240877E0,3.4809785E0,4.7005043E0,2.3891907E0,3.9389486E0,1.8755264E0,1.1354874E1,5.041444E0,5.09301E0,6.7653437E0,0E0,0E0,0E0,0E0,0E0,0E0,0E0,0E0,0E0,0E0,0E0,0E0,0E0,0E0,0E0,0E0,0E0,0E0,0E0,0E0,0E0,0E0,0E0,0E0,0E0,0E0,0E0,0E0,0E0,0E0,0E0,0E0,0E0,0E0,0E0,0E0,0E0,0E0,0E0,0E0,0E0,0E0,0E0,0E0,0E0,0E0,0E0,0E0,0E0,0E0,0E0,0E0,0E0,0E0,0E0,0E0,0E0,0E0,0E0,0E0],"parents":[2147483647,0,0,1,1,2,2,3,3,4,4,5,5,6,6,7,7,8,8,9,9,10,10,11,11,12,12,13,13,14,14,15,15,16,16,17,17,18,18,19,19,20,20,21,21,22,22,23,23,24,24,25,25,26,26,27,27,28,28,29,29,30,30,31,31,32,32,33,33,34,34,35,35,36,36,37,37,38,38,39,39,40,40,41,41,43,43,44,44,45,45,46,46,47,47,49,49,50,50,51,51,52,52,53,53,54,54,55,55,56,56,57,57,58,58,59,59,60,60,61,61,62,62],"right_children":[2,4,6,8,10,12,14,16,18,20,22,24,26,28,30,32,34,36,38,40,42,44,46,48,50,52,54,56,58,60,62,64,66,68,70,72,74,76,78,80,82,84,-1,86,88,90,92,94,-1,96,98,100,102,104,106,108,110,112,114,116,118,120,122,-1,-1,-1,-1,-1,-1,-1,-1,-1,-1,-1,-1,-1,-1,-1,-1,-1,-1,-1,-1,-1,-1,-1,-1,-1,-1,-1,-1,-1,-1,-1,-1,-1,-1,-1,-1,-1,-1,-1,-1,-1,-1,-1,-1,-1,-1,-1,-1,-1,-1,-1,-1,-1,-1,-1,-1,-1,-1,-1,-1],"split_conditions":[9.467894E-1,-1.469413E-1,-6.050997E-1,-9.623972E-1,-7.695192E-1,-5.859253E-1,-6.9726133E-1,2.6688325E-1,6.527171E-1,9.9898994E-1,1.5398281E0,3.5477456E-2,8.01098E-1,1.4137423E0,6.429578E-1,-9.4977504E-1,-2.0153306E0,1.6887141E0,-5.58431E-1,1.1091049E0,1.5451233E0,-1.2914524E0,1.3856864E0,7.8232026E-1,1.3405038E0,1.0451261E0,1.4756459E0,1.053193E0,8.607109E-2,1.1102453E0,1.5628684E0,-1.2839667E0,-2.3381728E-1,4.4699705E-1,-1.1049438E0,6.405224E-1,-2.3714422E-1,3.670823E-1,2.1488636E0,5.007777E-1,9.1793925E-1,-4.2120075E-1,-2.9392745E-2,-4.492747E0,-1.7586215E0,1.04865484E-1,1.6292963E0,1.1998671E0,-9.873857E-3,-5.3419584E-1,-1.0847335E0,1.8784429E0,8.135432E-1,1.6054211E0,1.0342095E0,-3.683726E-2,-9.939848E-1,1.7069442E0,3.9698464E-1,2.5177056E-1,-1.1022965E0,1.178598E0,5.9271413E-1,1.8763982E-1,-4.6901457E-2,1.5447769E-1,3.287697E-3,-9.417391E-2,1.769916E-1,3.3414987E-1,1.8181224E-1,1.3842737E-2,-3.1384256E-2,2.792996E-1,6.441376E-2,9.183797E-2,-1.6259247E-1,1.1051701E-1,-1.292223E-1,1.4441925E-1,3.7464023E-2,3.027965E-1,-1.3437504E-1,1.7823473E-1,3.519516E-1,1.2519372E-1,-5.216976E-2,1.4213909E-1,5.146514E-2,5.8868495E-3,2.8885564E-1,-1.6437307E-1,-2.3642292E-2,5.7335403E-2,3.0783764E-1,-1.3429984E-1,8.619719E-2,1.0931104E-1,2.6859632E-1,2.5569603E-1,-5.178783E-2,-1.10769324E-1,1.8248977E-1,-8.50802E-2,3.0511549E-2,-1.34913E-1,2.7319974E-1,1.24355994E-1,2.234187E-1,-1.0279665E-2,2.902085E-1,2.07003E-1,-1.220152E-1,2.8538865E-1,1.7796451E-1,2.007404E-1,8.712432E-2,2.739067E-1,-1.1813102E-1,1.6524021E-1,2.584567E-1,2.7231392E-1,5.367401E-2],"split_indices":[22,8,0,23,4,1,1,2,17,20,18,2,16,21,7,11,7,12,0,18,14,0,24,3,21,6,12,11,7,0,19,22,8,1,23,1,20,21,3,19,21,7,0,0,13,8,13,22,0,4,1,11,8,22,22,4,17,14,4,16,12,21,2,0,0,0,0,0,0,0,0,0,0,0,0,0,0,0,0,0,0,0,0,0,0,0,0,0,0,0,0,0,0,0,0,0,0,0,0,0,0,0,0,0,0,0,0,0,0,0,0,0,0,0,0,0,0,0,0,0,0,0,0],"split_type":[0,0,0,0,0,0,0,0,0,0,0,0,0,0,0,0,0,0,0,0,0,0,0,0,0,0,0,0,0,0,0,0,0,0,0,0,0,0,0,0,0,0,0,0,0,0,0,0,0,0,0,0,0,0,0,0,0,0,0,0,0,0,0,0,0,0,0,0,0,0,0,0,0,0,0,0,0,0,0,0,0,0,0,0,0,0,0,0,0,0,0,0,0,0,0,0,0,0,0,0,0,0,0,0,0,0,0,0,0,0,0,0,0,0,0,0,0,0,0,0,0,0,0],"sum_hessian":[1.0077843E4,8.291483E3,1.7863595E3,3.548777E3,4.742706E3,5.0231027E2,1.2840492E3,3.4298206E2,3.2057952E3,6.349182E2,4.1077876E3,2.1703061E2,2.8527966E2,4.5650186E2,8.275473E2,2.8339005E2,5.9592003E1,2.7829912E3,4.228038E2,5.877381E2,4.7180115E1,4.0461267E3,6.166106E1,3.8316685E1,1.7871393E2,4.8236366E1,2.370433E2,2.7507083E2,1.8143102E2,5.251264E2,3.0242093E2,9.0044365E1,1.9334569E2,1.7396002E1,4.2196003E1,2.6839204E3,9.9070816E1,5.8899796E1,3.6390402E2,5.462602E2,4.147793E1,4.5724995E1,1.4551198E0,4.1057184E2,3.635555E3,5.8308533E1,3.352528E0,3.587727E1,2.439416E0,5.7101437E1,1.2161249E2,3.0573391E1,1.7662975E1,2.2640428E2,1.0639031E1,2.2787793E2,4.7192905E1,3.8767574E1,1.4266345E2,4.9573297E2,2.9393404E1,2.3194583E2,7.047509E1,1.8359581E1,7.1684784E1,1.5676369E2,3.658201E1,6.923159E0,1.0472842E1,2.8342266E1,1.3853737E1,1.4417906E3,1.2421298E3,2.3029264E1,7.604155E1,1.6573845E1,4.232595E1,3.3463882E2,2.926519E1,4.4252756E2,1.0373262E2,4.0112865E1,1.365061E0,9.464603E0,3.626039E1,7.910092E1,3.3147092E2,3.4223154E2,3.2933232E3,4.9721603E0,5.3336372E1,1.9190034E0,1.4335247E0,4.7289124E0,3.1148355E1,1.149614E1,4.5605297E1,9.358302E1,2.8029467E1,2.3746122E1,6.827269E0,1.39054E1,3.7575755E0,1.5663383E2,6.977044E1,1.6745332E0,8.964498E0,1.6650392E2,6.1374004E1,2.441348E0,4.4751556E1,3.5820057E1,2.9475203E0,1.18430725E2,2.423272E1,9.9331436E1,3.9640155E2,2.348466E0,2.7044939E1,1.2977254E2,1.0217329E2,1.5919857E1,5.4555233E1],"tree_param":{"num_deleted":"0","num_feature":"25","num_nodes":"123","size_leaf_vector":"1"}},{"base_weights":[-4.6096846E-1,-4.7980106E-1,-3.8782522E-1,-4.5361936E-1,-5.101478E-1,-5.718487E-2,-4.025563E-1,-4.0018553E-1,-4.9654937E-1,-5.123959E-1,-6.5372154E-2,1.1253486E-1,-3.871726E-1,-4.14058E-1,-1.9749245E-1,-4.2382735E-1,-2.6778337E-1,-4.986935E-1,2.1813878E-1,-5.229645E-1,-4.3223745E-1,-2.5265974E-1,5.894796E-1,-3.0177158E-1,3.3884412E-1,-5.169571E-1,6.378582E-1,-2.8077427E-1,-4.3464914E-1,-1.18430205E-1,-5.498901E-1,-3.4561676E-1,-4.5921752E-1,-4.3005168E-1,-1.164547E-1,-5.0760555E-1,-3.55974E-1,5.9199876E-1,-1.4041208E-1,-5.338447E-1,-4.3440744E-1,-2.1079782E-1,-4.8472837E-1,1.8263999E-1,-5.1949376E-1,2.6367086E-1,-4.3790666E-3,4.8295277E-1,-4.7169292E-1,-3.2324187E-2,5.756823E-1,-5.9224105E-1,1.484962E-1,2.8474462E-1,1.3776475E-2,1.7954525E-2,-3.2768357E-1,-4.0112996E-1,-5.2251834E-1,-2.548884E-1,2.605483E-1,-6.0146487E-1,2.0110196E-2,-1.5446229E-2,-1.17169596E-1,1.566262E-1,-1.3872506E-1,1.5159877E-1,-1.4080943E-1,1.8687674E-1,-5.402569E-2,-1.2049749E-1,-1.5548372E-1,-5.8026988E-2,-1.5603621E-1,-1.0962261E-1,2.9425353E-1,-1.507471E-1,-1.6859013E-1,-9.132085E-2,-1.547879E-1,3.5807883E-5,-1.4697134E-1,-1.4788333E-1,1.236671E-1,2.1755162E-1,-9.010693E-2,-1.8297476E-1,6.204557E-3,-1.1106398E-1,2.948951E-1,2.0688724E-2,-1.71932E-1,-1.21398464E-1,1.5286264E-1,8.29401E-2,3.6094415E-1,5.3485733E-2,-2.025626E-1,-1.9039738E-1,9.778171E-2,-1.6223131E-1,-7.589097E-2,2.3320809E-1,-1.2173877E-1,6.990122E-2,-1.6102444E-1,1.15017675E-1,-1.0395367E-1,-3.1369653E-2,2.648161E-1,1.1034706E-2,-1.9786619E-1],"categories":[],"categories_nodes":[],"categories_segments":[],"categories_sizes":[],"default_left":[0,0,0,0,0,0,0,0,0,0,0,0,0,0,0,0,0,0,0,0,0,0,0,0,0,0,0,0,0,0,0,0,0,0,0,0,0,0,0,0,0,0,0,0,0,0,0,0,0,0,0,0,0,0,0,0,0,0,0,0,0,0,0,0,0,0,0,0,0,0,0,0,0,0,0,0,0,0,0,0,0,0,0,0,0,0,0,0,0,0,0,0,0,0,0,0,0,0,0,0,0,0,0,0,0,0,0,0,0,0,0,0,0],"id":5,"left_children":[1,3,5,7,9,11,13,15,17,19,21,23,25,27,29,31,33,35,37,39,41,43,45,47,49,51,53,55,57,59,61,63,65,67,69,71,73,75,-1,77,79,81,83,85,87,-1,-1,89,91,93,95,97,-1,-1,-1,99,101,103,105,107,109,111,-1,-1,-1,-1,-1,-1,-1,-1,-1,-1,-1,-1,-1,-1,-1,-1,-1,-1,-1,-1,-1,-1,-1,-1,-1,-1,-1,-1,-1,-1,-1,-1,-1,-1,-1,-1,-1,-1,-1,-1,-1,-1,-1,-1,-1,-1,-1,-1,-1,-1,-1],"loss_changes":[1.2075073E1,5.3894043E0,8.879669E0,8.533997E0,3.2348022E0,4.4751005E0,4.044983E0,5.2113953E0,3.3371582E0,2.5288696E0,2.3055563E0,5.0741496E0,3.9349008E0,4.4223633E0,2.5771494E0,3.831665E0,6.3454514E0,2.491333E0,2.0721176E0,2.5319214E0,4.3680573E0,1.7644024E0,7.489927E-1,2.796193E0,3.0747225E0,2.167748E0,6.000974E-1,3.1505089E0,4.009369E0,4.138056E0,5.845194E-1,5.9710846E0,3.3479462E0,4.845171E0,6.5171137E0,2.0251465E0,3.283224E0,2.2090175E0,0E0,1.9661865E0,3.2274017E0,4.442494E0,2.4885864E0,1.843063E0,4.6057153E-1,0E0,0E0,2.0373228E0,9.353969E-1,3.1294653E0,3.6619334E0,1.613617E0,0E0,0E0,0E0,6.518866E0,2.951809E0,6.0407104E0,4.3419647E0,3.5478528E0,4.9396234E0,6.131778E-1,0E0,0E0,0E0,0E0,0E0,0E0,0E0,0E0,0E0,0E0,0E0,0E0,0E0,0E0,0E0,0E0,0E0,0E0,0E0,0E0,0E0,0E0,0E0,0E0,0E0,0E0,0E0,0E0,0E0,0E0,0E0,0E0,0E0,0E0,0E0,0E0,0E0,0E0,0E0,0E0,0E0,0E0,0E0,0E0,0E0,0E0,0E0,0E0,0E0,0E0,0E0],"parents":[2147483647,0,0,1,1,2,2,3,3,4,4,5,5,6,6,7,7,8,8,9,9,10,10,11,11,12,12,13,13,14,14,15,15,16,16,17,17,18,18,19,19,20,20,21,21,22,22,23,23,24,24,25,25,26,26,27,27,28,28,29,29,30,30,31,31,32,32,33,33,34,34,35,35,36,36,37,37,39,39,40,40,41,41,42,42,43,43,44,44,47,47,48,48,49,49,50,50,51,51,55,55,56,56,57,57,58,58,59,59,60,60,61,61],"right_children":[2,4,6,8,10,12,14,16,18,20,22,24,26,28,30,32,34,36,38,40,42,44,46,48,50,52,54,56,58,60,62,64,66,68,70,72,74,76,-1,78,80,82,84,86,88,-1,-1,90,92,94,96,98,-1,-1,-1,100,102,104,106,108,110,112,-1,-1,-1,-1,-1,-1,-1,-1,-1,-1,-1,-1,-1,-1,-1,-1,-1,-1,-1,-1,-1,-1,-1,-1,-1,-1,-1,-1,-1,-1,-1,-1,-1,-1,-1,-1,-1,-1,-1,-1,-1,-1,-1,-1,-1,-1,-1,-1,-1,-1,-1],"split_conditions":[8.5125107E-1,1.246227E-1,-8.598916E-1,4.842805E-2,2.1544535E0,8.447272E-1,1.4392918E0,6.2722504E-1,3.1956992E0,8.017442E-1,2.5241075E0,-7.092708E-2,1.7263243E0,2.749037E-1,2.2751582E0,-1.0183773E0,1.7708698E-1,1.8223575E0,-7.6555386E-2,1.0755606E0,-4.53772E-1,3.7616175E-1,5.955622E-1,-8.2495445E-1,-9.495472E-2,-8.7817633E-1,9.0937066E-1,-9.3673813E-1,1.7104441E-1,1.3146368E0,2.6805892E0,-6.810252E-1,-1.6001782E0,-1.3669354E0,-8.648405E-1,-8.2495445E-1,6.0325164E-1,-2.0010033E0,-1.4041208E-1,-1.3832691E-1,-3.2336906E-1,-1.722084E-1,2.1505086E0,4.073228E-1,1.5029997E0,2.6367086E-1,-4.3790666E-3,4.2520162E-1,-5.493949E-1,-1.9331796E-1,5.875566E-1,-6.4370733E-1,1.484962E-1,2.8474462E-1,1.3776475E-2,-1.485416E-1,9.883706E-1,-1.2162861E0,-1.7517158E0,-7.353063E-1,1.8274343E0,-9.4977504E-1,2.0110196E-2,-1.5446229E-2,-1.17169596E-1,1.566262E-1,-1.3872506E-1,1.5159877E-1,-1.4080943E-1,1.8687674E-1,-5.402569E-2,-1.2049749E-1,-1.5548372E-1,-5.8026988E-2,-1.5603621E-1,-1.0962261E-1,2.9425353E-1,-1.507471E-1,-1.6859013E-1,-9.132085E-2,-1.547879E-1,3.5807883E-5,-1.4697134E-1,-1.4788333E-1,1.236671E-1,2.1755162E-1,-9.010693E-2,-1.8297476E-1,6.204557E-3,-1.1106398E-1,2.948951E-1,2.0688724E-2,-1.71932E-1,-1.21398464E-1,1.5286264E-1,8.29401E-2,3.6094415E-1,5.3485733E-2,-2.025626E-1,-1.9039738E-1,9.778171E-2,-1.6223131E-1,-7.589097E-2,2.3320809E-1,-1.2173877E-1,6.990122E-2,-1.6102444E-1,1.15017675E-1,-1.0395367E-1,-3.1369653E-2,2.648161E-1,1.1034706E-2,-1.9786619E-1],"split_indices":[23,2,7,1,15,20,12,17,11,17,7,15,9,19,9,23,0,12,17,10,6,11,3,15,3,7,1,1,1,10,5,2,20,1,12,15,9,9,0,12,6,1,20,4,2,0,0,22,13,12,19,0,0,0,0,18,23,5,10,10,20,11,0,0,0,0,0,0,0,0,0,0,0,0,0,0,0,0,0,0,0,0,0,0,0,0,0,0,0,0,0,0,0,0,0,0,0,0,0,0,0,0,0,0,0,0,0,0,0,0,0,0,0],"split_type":[0,0,0,0,0,0,0,0,0,0,0,0,0,0,0,0,0,0,0,0,0,0,0,0,0,0,0,0,0,0,0,0,0,0,0,0,0,0,0,0,0,0,0,0,0,0,0,0,0,0,0,0,0,0,0,0,0,0,0,0,0,0,0,0,0,0,0,0,0,0,0,0,0,0,0,0,0,0,0,0,0,0,0,0,0,0,0,0,0,0,0,0,0,0,0,0,0,0,0,0,0,0,0,0,0,0,0,0,0,0,0,0,0],"sum_hessian":[8.900286E3,7.0734805E3,1.8268058E3,3.8058904E3,3.26759E3,7.81268E1,1.748679E3,1.7001195E3,2.1057708E3,3.2510059E3,1.658415E1,5.202712E1,2.6099684E1,1.6548425E3,9.383652E1,1.4406711E3,2.5944836E2,2.0997734E3,5.9972486E0,2.8674226E3,3.8358325E2,1.3373502E1,3.2106483E0,1.8261738E1,3.3765377E1,2.3606419E1,2.4932654E0,2.2340517E2,1.4314374E3,7.773282E1,1.6103695E1,4.521679E2,9.885033E2,1.2431003E2,1.3513832E2,1.9739537E3,1.2581976E2,3.9709544E0,2.0262942E0,2.5491982E3,3.1822446E2,7.446386E1,3.091194E2,5.2022843E0,8.171218E0,1.8630682E0,1.3475801E0,2.9225793E0,1.5339159E1,1.3489075E1,2.0276304E1,2.235785E1,1.2485707E0,1.238496E0,1.2547693E0,3.0403875E1,1.930013E2,1.0402006E3,3.912367E2,5.739436E1,2.033846E1,1.4884418E1,1.2192769E0,6.02243E1,3.919436E2,2.6852436E0,9.8581805E2,4.5357747E0,1.19774254E2,1.0011961E1,1.25126366E2,1.841979E2,1.7897559E3,6.4311714E1,6.1508045E1,1.1643633E0,2.8065913E0,1.2142588E3,1.3349395E3,1.24495415E2,1.9372905E2,4.2982292E1,3.1481571E1,3.0675992E2,2.3594916E0,2.2139893E0,2.988295E0,6.8889437E0,1.282274E0,1.1758803E0,1.7466991E0,2.4733362E0,1.2865823E1,8.145318E0,5.343756E0,1.470475E1,5.571554E0,2.0617104E0,2.0296139E1,9.407951E0,2.0995924E1,4.8484116E1,1.4451718E2,3.4490685E0,1.0367516E3,6.9482484E0,3.8428845E2,6.804894E0,5.0589466E1,1.3341251E1,6.9972095E0,1.2722714E0,1.3612146E1],"tree_param":{"num_deleted":"0","num_feature":"25","num_nodes":"113","size_leaf_vector":"1"}},{"base_weights":[1.5933351E-1,2.026439E-1,-7.448744E-2,-9.8769024E-2,2.2949037E-1,2.8670782E-1,-1.5272246E-1,1.307473E-1,-2.561824E-1,1.4829156E-1,3.046797E-1,3.8940394E-1,-4.5359075E-1,-5.6181338E-2,-3.4391066E-1,5.9850675E-1,-3.9684642E-2,-3.2940054E-1,1.8600938E-1,1.7151968E-1,-3.765071E-1,3.1966734E-1,-5.9877858E-2,4.997312E-1,-1.289351E-1,2.4626063E-1,-5.521841E-1,-1.9487882E-1,5.3247873E-2,-4.453151E-1,-3.3200063E-2,-5.302101E-1,6.99575E-1,5.4418427E-1,-2.27278E-1,-2.0651414E-1,-5.763534E-1,3.6501923E-1,-2.0537557E-1,1.9333938E-1,-2.3445494E-1,-6.4406997E-1,3.1859886E-2,7.949923E-2,3.4122884E-1,1.3841577E-1,-2.8703895E-1,-2.1068893E-1,5.4460764E-1,-2.16947E-1,1.3871095E-1,1.1602779E-1,-6.045443E-1,-2.8457291E-2,-4.5264837E-1,-1.7676438E-1,1.3058521E-1,5.9575677E-1,-4.6173882E-1,1.6352357E-1,-3.686748E-1,-1.9790925E-1,4.5619127E-3,2.5884098E-1,4.8121415E-2,2.4678783E-1,-1.886531E-1,-8.7148055E-2,3.0141056E-1,-3.1254996E-2,-1.9442363E-1,-1.8801227E-1,1.12633176E-1,-4.283062E-2,2.2893107E-1,6.3547865E-2,-7.115967E-2,-8.423138E-2,2.5792345E-1,-1.03659354E-1,-2.2160439E-1,1.06760785E-1,-1.8760605E-1,1.665806E-1,2.0708593E-4,1.0781427E-1,2.7438434E-2,-1.20810956E-1,8.1585534E-2,-2.7007835E-2,-2.0771383E-1,-2.214592E-1,1.3986646E-1,1.2294354E-1,2.2713919E-1,-4.481213E-2,2.4951847E-1,-1.2121391E-2,-1.9931208E-1,3.8298033E-2,-1.0825099E-1,1.2711608E-1,-1.6333452E-1,1.8834369E-1,-8.008157E-2,-5.8131646E-2,6.249011E-2,2.8748852E-1,-1.1556493E-1,-9.5579006E-2,-1.6499205E-1,1.4317335E-1,-4.918708E-2,-1.6130751E-1,2.7884923E-2],"categories":[],"categories_nodes":[],"categories_segments":[],"categories_sizes":[],"default_left":[0,0,0,0,0,0,0,0,0,0,0,0,0,0,0,0,0,0,0,0,0,0,0,0,0,0,0,0,0,0,0,0,0,0,0,0,0,0,0,0,0,0,0,0,0,0,0,0,0,0,0,0,0,0,0,0,0,0,0,0,0,0,0,0,0,0,0,0,0,0,0,0,0,0,0,0,0,0,0,0,0,0,0,0,0,0,0,0,0,0,0,0,0,0,0,0,0,0,0,0,0,0,0,0,0,0,0,0,0,0,0,0,0,0,0],"id":6,"left_children":[1,3,5,7,9,11,13,15,17,19,21,23,25,27,29,31,33,35,37,39,41,43,45,47,49,-1,51,53,55,57,59,61,63,65,67,69,71,73,-1,75,77,79,81,83,85,87,89,91,93,-1,95,-1,97,99,101,103,105,107,109,111,113,-1,-1,-1,-1,-1,-1,-1,-1,-1,-1,-1,-1,-1,-1,-1,-1,-1,-1,-1,-1,-1,-1,-1,-1,-1,-1,-1,-1,-1,-1,-1,-1,-1,-1,-1,-1,-1,-1,-1,-1,-1,-1,-1,-1,-1,-1,-1,-1,-1,-1,-1,-1,-1,-1],"loss_changes":[1.03259705E2,6.962958E1,4.5088203E1,2.5475994E1,4.8179596E1,2.1778997E1,2.4176447E1,2.2916088E1,1.3596529E1,4.638224E1,2.2422302E1,1.4365047E1,4.860853E0,1.324892E1,1.3837276E1,9.126177E0,2.327906E1,1.0776543E1,9.604905E0,3.228273E1,1.7651316E1,2.036792E1,7.370951E0,6.6946144E0,7.2063212E0,0E0,1.8638887E0,1.6498426E1,8.710141E0,5.941208E0,7.2709074E0,4.956684E-1,6.098881E0,1.7404062E1,1.2807627E1,1.0835518E1,5.925991E0,1.0305462E1,0E0,2.7543076E1,9.671415E0,2.499607E0,1.4026847E1,1.2213951E1,1.6350983E1,6.4374795E0,6.0212874E0,4.9803286E0,5.2588425E0,0E0,6.441949E0,0E0,1.0463142E0,1.2238003E1,1.2373667E1,9.113768E0,9.267418E0,2.3548012E0,3.9523163E0,7.225151E0,3.2250228E0,0E0,0E0,0E0,0E0,0E0,0E0,0E0,0E0,0E0,0E0,0E0,0E0,0E0,0E0,0E0,0E0,0E0,0E0,0E0,0E0,0E0,0E0,0E0,0E0,0E0,0E0,0E0,0E0,0E0,0E0,0E0,0E0,0E0,0E0,0E0,0E0,0E0,0E0,0E0,0E0,0E0,0E0,0E0,0E0,0E0,0E0,0E0,0E0,0E0,0E0,0E0,0E0,0E0,0E0],"parents":[2147483647,0,0,1,1,2,2,3,3,4,4,5,5,6,6,7,7,8,8,9,9,10,10,11,11,12,12,13,13,14,14,15,15,16,16,17,17,18,18,19,19,20,20,21,21,22,22,23,23,24,24,26,26,27,27,28,28,29,29,30,30,31,31,32,32,33,33,34,34,35,35,36,36,37,37,39,39,40,40,41,41,42,42,43,43,44,44,45,45,46,46,47,47,48,48,50,50,52,52,53,53,54,54,55,55,56,56,57,57,58,58,59,59,60,60],"right_children":[2,4,6,8,10,12,14,16,18,20,22,24,26,28,30,32,34,36,38,40,42,44,46,48,50,-1,52,54,56,58,60,62,64,66,68,70,72,74,-1,76,78,80,82,84,86,88,90,92,94,-1,96,-1,98,100,102,104,106,108,110,112,114,-1,-1,-1,-1,-1,-1,-1,-1,-1,-1,-1,-1,-1,-1,-1,-1,-1,-1,-1,-1,-1,-1,-1,-1,-1,-1,-1,-1,-1,-1,-1,-1,-1,-1,-1,-1,-1,-1,-1,-1,-1,-1,-1,-1,-1,-1,-1,-1,-1,-1,-1,-1,-1,-1],"split_conditions":[9.467894E-1,-1.1229553E0,-1.7586687E0,-2.8495973E-1,-1.10040694E-1,2.2813106E0,1.4054317E0,-1.7876166E0,1.1883217E0,5.085131E-1,1.3177373E0,9.311393E-1,-1.9299325E0,7.366016E-2,6.563835E-1,-1.196611E0,-1.9953336E0,5.5315864E-1,6.148923E-1,1.1367122E0,6.9125116E-1,-8.3589435E-1,1.505279E-2,-6.1931163E-1,5.094732E-1,2.4626063E-1,-1.2502145E0,-6.6009504E-3,-3.7873968E-1,-1.787889E0,1.5887767E0,-1.7354366E0,-1.5203935E0,5.0271386E-1,1.9566159E0,5.772143E-1,2.5031762E0,1.5762951E0,-2.0537557E-1,1.2396747E0,1.7525125E0,-6.29356E-1,1.7150813E-1,-1.6480172E0,1.0376465E0,-7.921288E-1,4.653658E-1,-1.9737693E0,4.177574E-1,-2.16947E-1,9.0937066E-1,1.1602779E-1,-3.1001082E-1,7.695075E-1,-1.0147474E0,-1.3682377E0,8.954267E-1,-1.1513888E0,1.5743556E0,1.3947204E-1,1.5939926E0,-1.9790925E-1,4.5619127E-3,2.5884098E-1,4.8121415E-2,2.4678783E-1,-1.886531E-1,-8.7148055E-2,3.0141056E-1,-3.1254996E-2,-1.9442363E-1,-1.8801227E-1,1.12633176E-1,-4.283062E-2,2.2893107E-1,6.3547865E-2,-7.115967E-2,-8.423138E-2,2.5792345E-1,-1.03659354E-1,-2.2160439E-1,1.06760785E-1,-1.8760605E-1,1.665806E-1,2.0708593E-4,1.0781427E-1,2.7438434E-2,-1.20810956E-1,8.1585534E-2,-2.7007835E-2,-2.0771383E-1,-2.214592E-1,1.3986646E-1,1.2294354E-1,2.2713919E-1,-4.481213E-2,2.4951847E-1,-1.2121391E-2,-1.9931208E-1,3.8298033E-2,-1.0825099E-1,1.2711608E-1,-1.6333452E-1,1.8834369E-1,-8.008157E-2,-5.8131646E-2,6.249011E-2,2.8748852E-1,-1.1556493E-1,-9.5579006E-2,-1.6499205E-1,1.4317335E-1,-4.918708E-2,-1.6130751E-1,2.7884923E-2],"split_indices":[22,4,0,16,1,22,22,5,0,0,11,8,2,12,4,23,3,16,8,16,0,13,3,8,5,0,6,6,4,7,21,4,4,0,0,2,6,5,0,10,12,6,3,3,14,5,4,0,5,0,1,0,3,10,7,2,23,4,22,0,4,0,0,0,0,0,0,0,0,0,0,0,0,0,0,0,0,0,0,0,0,0,0,0,0,0,0,0,0,0,0,0,0,0,0,0,0,0,0,0,0,0,0,0,0,0,0,0,0,0,0,0,0,0,0],"split_type":[0,0,0,0,0,0,0,0,0,0,0,0,0,0,0,0,0,0,0,0,0,0,0,0,0,0,0,0,0,0,0,0,0,0,0,0,0,0,0,0,0,0,0,0,0,0,0,0,0,0,0,0,0,0,0,0,0,0,0,0,0,0,0,0,0,0,0,0,0,0,0,0,0,0,0,0,0,0,0,0,0,0,0,0,0,0,0,0,0,0,0,0,0,0,0,0,0,0,0,0,0,0,0,0,0,0,0,0,0,0,0,0,0,0,0],"sum_hessian":[1.019411E4,8.601076E3,1.5930343E3,7.032138E2,7.897862E3,2.8314526E2,1.309889E3,2.8615515E2,4.1705862E2,3.7986152E3,4.099247E3,2.4906792E2,3.4077347E1,8.712448E2,4.3864417E2,7.574828E1,2.1040686E2,3.580309E2,5.9027706E1,3.6382554E3,1.6035979E2,3.9374922E3,1.617547E2,2.0538756E2,4.3680367E1,1.9209204E0,3.215643E1,3.8389334E2,4.8735147E2,3.303854E2,1.0825876E2,5.876316E0,6.987196E1,5.0701557E1,1.597053E2,2.4029416E2,1.17736755E2,4.9442226E1,9.585483E0,3.4531829E3,1.8507251E2,9.653359E1,6.382619E1,3.2476004E2,3.6127322E3,8.657354E1,7.518116E1,1.1983697E1,1.9340385E2,1.3036071E1,3.0644295E1,1.3611532E0,3.0795275E1,2.3395645E2,1.4993689E2,1.22307106E2,3.6504437E2,4.58331E0,3.258021E2,6.856472E1,3.9694042E1,4.5795536E0,1.2967625E0,5.3173885E1,1.6698082E1,4.1216667E1,9.48489E0,1.5263737E2,7.067942E0,1.9608759E2,4.420657E1,1.1214533E2,5.5914245E0,2.2009163E1,2.7433062E1,3.3114988E3,1.4168402E2,1.7826994E2,6.802575E0,2.4350262E1,7.2183334E1,4.3057266E1,2.0768925E1,4.529123E1,2.794688E2,3.367554E3,2.451783E2,1.6736729E1,6.983681E1,5.1413902E1,2.3767262E1,6.684222E0,5.299475E0,1.2013487E2,7.326899E1,2.2200209E1,8.444086E0,3.1134453E0,2.768183E1,1.59606E2,7.435046E1,1.3873913E1,1.3606297E2,1.172539E1,1.1058171E2,7.0269455E1,2.9477493E2,3.3634117E0,1.2198982E0,1.2600167E2,1.9980043E2,3.478446E1,3.378026E1,2.8935108E1,1.0758936E1],"tree_param":{"num_deleted":"0","num_feature":"25","num_nodes":"115","size_leaf_vector":"1"}},{"base_weights":[1.5832868E-1,1.1732015E-1,3.2147637E-1,2.8178313E-1,8.828358E-2,4.62257E-1,2.3730831E-1,2.0151497E-1,4.6646857E-1,1.5144508E-1,1.3137653E-2,3.4337267E-1,5.7289934E-1,1.7389985E-3,3.1028005E-1,5.988526E-1,1.5826078E-1,6.1870307E-1,3.3574104E-1,1.2829669E-1,4.2704585E-1,-9.859118E-3,2.576221E-1,6.6571003E-1,2.833897E-1,2.1177413E-1,6.078358E-1,5.5080473E-1,-9.715931E-2,2.1982779E-1,4.7250986E-1,6.818448E-1,9.992613E-2,1.285928E-1,7.569033E-1,2.5614497E-1,7.479494E-1,9.142054E-2,6.568936E-1,2.9021952E-1,9.802298E-2,5.156007E-1,-3.2166275E-1,-2.82241E-2,2.5142017E-1,6.723896E-1,1.9334677E-1,3.0905744E-1,8.834051E-1,1.3572453E-1,4.400248E-1,-1.8339908E-1,6.0935545E-1,1.051774E0,5.797175E-1,1.8152282E-1,8.381635E-1,-1.4778034E-1,5.5834454E-1,3.2882833E-1,1.9577546E-1,5.885569E-1,3.0197862E-1,2.602492E-1,1.1956634E-1,-1.4857684E-1,2.7022758E-1,2.3377659E-2,1.3672434E-1,2.7058876E-1,-8.317503E-2,-1.4105992E-1,1.4280848E-1,3.3204907E-1,1.8855108E-1,2.2860424E-1,-8.4269815E-4,-1.9834892E-1,2.17355E-1,1.5540552E-1,3.9288178E-2,2.3784548E-2,1.3309066E-1,6.645392E-2,1.8869497E-1,1.8399993E-1,-1.5890853E-1,5.5654902E-2,-1.7011277E-2,2.7046492E-2,2.1843308E-1,-1.3508796E-2,2.9229248E-1,3.0145181E-2,1.4883898E-1,2.3365345E-2,2.9720137E-1,-5.4683942E-2,2.8080347E-1,1.4454311E-1,-1.79016E-3,-4.1615557E-2,1.5867531E-1,1.2433012E-1,-1.553519E-1,2.407789E-1,2.1697175E-2,9.135179E-2,3.2762998E-1,1.3572651E-1,1.9830362E-1,-1.2778428E-1,1.6932759E-1,5.083981E-2,3.210222E-1,-5.3744625E-2,1.5951104E-1,5.327945E-3,3.210367E-1,8.826188E-2,2.7716398E-2,1.9550088E-1,5.9864387E-2,2.180225E-1,6.0687143E-2],"categories":[],"categories_nodes":[],"categories_segments":[],"categories_sizes":[],"default_left":[0,0,0,0,0,0,0,0,0,0,0,0,0,0,0,0,0,0,0,0,0,0,0,0,0,0,0,0,0,0,0,0,0,0,0,0,0,0,0,0,0,0,0,0,0,0,0,0,0,0,0,0,0,0,0,0,0,0,0,0,0,0,0,0,0,0,0,0,0,0,0,0,0,0,0,0,0,0,0,0,0,0,0,0,0,0,0,0,0,0,0,0,0,0,0,0,0,0,0,0,0,0,0,0,0,0,0,0,0,0,0,0,0,0,0,0,0,0,0,0,0,0,0,0,0],"id":7,"left_children":[1,3,5,7,9,11,13,15,17,19,21,23,25,27,29,31,33,35,37,39,41,43,45,47,49,51,53,55,57,59,61,63,65,67,69,71,73,75,77,79,81,83,85,87,89,91,93,95,97,99,101,103,105,107,109,111,113,115,117,-1,119,121,123,-1,-1,-1,-1,-1,-1,-1,-1,-1,-1,-1,-1,-1,-1,-1,-1,-1,-1,-1,-1,-1,-1,-1,-1,-1,-1,-1,-1,-1,-1,-1,-1,-1,-1,-1,-1,-1,-1,-1,-1,-1,-1,-1,-1,-1,-1,-1,-1,-1,-1,-1,-1,-1,-1,-1,-1,-1,-1,-1,-1,-1,-1],"loss_changes":[6.816969E1,3.888788E1,2.4148376E1,1.8025986E1,3.2876816E1,9.865128E0,2.205893E1,1.4578571E1,7.146599E0,2.3956108E1,1.7794897E1,6.989094E0,4.8511505E0,1.6588861E1,1.4273354E1,3.3876076E0,1.360157E1,7.752945E0,1.5711292E1,1.6998371E1,1.947247E1,1.3891059E1,7.124317E0,4.1915665E0,7.219906E0,5.8231707E0,3.876068E0,4.7957373E0,8.672807E0,1.308271E1,6.7458267E0,3.4085732E0,6.677879E0,1.2166069E1,5.682909E0,7.582677E0,4.63974E0,7.289004E0,8.205212E0,1.9762508E1,1.892893E1,8.5561905E0,6.43528E0,1.6472818E1,1.4549732E1,7.864702E0,6.614094E0,3.5994911E0,2.142273E0,8.018115E0,7.907686E0,4.013452E0,1.8464794E0,2.7548027E-1,3.2213135E0,5.283528E0,3.8422546E0,5.234434E0,5.173374E0,0E0,6.234186E0,4.955353E0,5.938857E0,0E0,0E0,0E0,0E0,0E0,0E0,0E0,0E0,0E0,0E0,0E0,0E0,0E0,0E0,0E0,0E0,0E0,0E0,0E0,0E0,0E0,0E0,0E0,0E0,0E0,0E0,0E0,0E0,0E0,0E0,0E0,0E0,0E0,0E0,0E0,0E0,0E0,0E0,0E0,0E0,0E0,0E0,0E0,0E0,0E0,0E0,0E0,0E0,0E0,0E0,0E0,0E0,0E0,0E0,0E0,0E0,0E0,0E0,0E0,0E0,0E0,0E0],"parents":[2147483647,0,0,1,1,2,2,3,3,4,4,5,5,6,6,7,7,8,8,9,9,10,10,11,11,12,12,13,13,14,14,15,15,16,16,17,17,18,18,19,19,20,20,21,21,22,22,23,23,24,24,25,25,26,26,27,27,28,28,29,29,30,30,31,31,32,32,33,33,34,34,35,35,36,36,37,37,38,38,39,39,40,40,41,41,42,42,43,43,44,44,45,45,46,46,47,47,48,48,49,49,50,50,51,51,52,52,53,53,54,54,55,55,56,56,57,57,58,58,60,60,61,61,62,62],"right_children":[2,4,6,8,10,12,14,16,18,20,22,24,26,28,30,32,34,36,38,40,42,44,46,48,50,52,54,56,58,60,62,64,66,68,70,72,74,76,78,80,82,84,86,88,90,92,94,96,98,100,102,104,106,108,110,112,114,116,118,-1,120,122,124,-1,-1,-1,-1,-1,-1,-1,-1,-1,-1,-1,-1,-1,-1,-1,-1,-1,-1,-1,-1,-1,-1,-1,-1,-1,-1,-1,-1,-1,-1,-1,-1,-1,-1,-1,-1,-1,-1,-1,-1,-1,-1,-1,-1,-1,-1,-1,-1,-1,-1,-1,-1,-1,-1,-1,-1,-1,-1,-1,-1,-1,-1],"split_conditions":[8.652184E-1,-7.836179E-1,-6.6167873E-1,2.6707143E-1,4.8697405E-3,-1.5065347E-1,-6.050997E-1,-1.2134368E0,-2.5516006E-1,9.44702E-1,8.969738E-1,6.9342047E-1,-8.9021116E-1,7.635888E-1,5.6424356E-1,9.962685E-1,9.9182427E-1,4.714228E-2,3.7470677E-1,-2.5664353E-1,1.1491219E0,1.0376465E0,-3.8739362E-1,9.2427915E-1,1.3369292E0,1.0799006E0,3.318068E-1,2.0898855E-1,1.4593886E0,-4.127283E-1,6.230438E-1,-1.1236821E0,2.6116568E-1,4.6313572E-1,1.2218512E0,-7.053027E-1,-5.214532E-1,-1.8487166E-1,-2.2920156E-1,-4.7489786E-1,1.2396747E0,-2.01592E-1,-2.366994E-1,-7.297062E-1,6.395342E-1,-5.796666E-1,5.446561E-1,5.396357E-1,-1.0051743E0,-4.7520784E-1,-2.7417357E0,2.2135651E-1,7.9650974E-1,-6.0276E-1,1.2556391E0,-2.235007E0,-4.565557E-1,2.5241075E0,1.3061084E0,3.2882833E-1,-5.1195174E-3,1.6804541E0,5.202323E-1,2.602492E-1,1.1956634E-1,-1.4857684E-1,2.7022758E-1,2.3377659E-2,1.3672434E-1,2.7058876E-1,-8.317503E-2,-1.4105992E-1,1.4280848E-1,3.3204907E-1,1.8855108E-1,2.2860424E-1,-8.4269815E-4,-1.9834892E-1,2.17355E-1,1.5540552E-1,3.9288178E-2,2.3784548E-2,1.3309066E-1,6.645392E-2,1.8869497E-1,1.8399993E-1,-1.5890853E-1,5.5654902E-2,-1.7011277E-2,2.7046492E-2,2.1843308E-1,-1.3508796E-2,2.9229248E-1,3.0145181E-2,1.4883898E-1,2.3365345E-2,2.9720137E-1,-5.4683942E-2,2.8080347E-1,1.4454311E-1,-1.79016E-3,-4.1615557E-2,1.5867531E-1,1.2433012E-1,-1.553519E-1,2.407789E-1,2.1697175E-2,9.135179E-2,3.2762998E-1,1.3572651E-1,1.9830362E-1,-1.2778428E-1,1.6932759E-1,5.083981E-2,3.210222E-1,-5.3744625E-2,1.5951104E-1,5.327945E-3,3.210367E-1,8.826188E-2,2.7716398E-2,1.9550088E-1,5.9864387E-2,2.180225E-1,6.0687143E-2],"split_indices":[21,4,1,24,1,3,0,24,3,16,11,14,6,16,7,8,18,0,8,10,6,14,20,22,16,11,23,11,2,0,6,20,11,16,0,11,8,20,3,16,10,0,0,14,0,12,15,2,8,4,0,2,3,9,22,0,2,7,19,0,4,19,13,0,0,0,0,0,0,0,0,0,0,0,0,0,0,0,0,0,0,0,0,0,0,0,0,0,0,0,0,0,0,0,0,0,0,0,0,0,0,0,0,0,0,0,0,0,0,0,0,0,0,0,0,0,0,0,0,0,0,0,0,0,0],"split_type":[0,0,0,0,0,0,0,0,0,0,0,0,0,0,0,0,0,0,0,0,0,0,0,0,0,0,0,0,0,0,0,0,0,0,0,0,0,0,0,0,0,0,0,0,0,0,0,0,0,0,0,0,0,0,0,0,0,0,0,0,0,0,0,0,0,0,0,0,0,0,0,0,0,0,0,0,0,0,0,0,0,0,0,0,0,0,0,0,0,0,0,0,0,0,0,0,0,0,0,0,0,0,0,0,0,0,0,0,0,0,0,0,0,0,0,0,0,0,0,0,0,0,0,0,0],"sum_hessian":[1.0193748E4,8.1475205E3,2.0462279E3,1.2213115E3,6.926209E3,7.639474E2,1.2822805E3,8.527707E2,3.6854083E2,3.7626335E3,3.1635754E3,3.7023553E2,3.9371185E2,3.0350894E2,9.787716E2,8.245798E1,7.7031274E2,1.6854015E2,2.000007E2,3.4724404E3,2.901932E2,2.8924631E3,2.711121E2,5.6502625E1,3.137329E2,3.535216E1,3.5835968E2,4.562694E1,2.5788202E2,6.29914E2,3.4885757E2,7.038364E1,1.2074346E1,7.3509705E2,3.5215675E1,4.5076023E1,1.2346412E2,1.1431723E2,8.568348E1,5.456066E2,2.9268337E3,2.5977878E2,3.0414433E1,2.7033408E3,1.8912234E2,3.510688E1,2.3600522E2,2.2333332E1,3.4169292E1,1.624512E2,1.512817E2,1.799995E1,1.7352213E1,1.9177387E1,3.391823E2,2.0681301E1,2.494564E1,2.4011386E2,1.7768143E1,1.56376295E1,6.1427637E2,2.0613249E2,1.4272508E2,4.1273247E1,2.9110388E1,7.145415E0,4.9289308E0,6.375901E2,9.750695E1,3.0995768E1,4.219908E0,1.0210168E1,3.4865856E1,2.8766726E1,9.4697395E1,1.3211257E1,1.0110597E2,3.7531312E0,8.193034E1,2.2356859E2,3.2203806E2,2.7774531E3,1.4938057E2,7.3107864E1,1.866709E2,5.180874E0,2.5233559E1,3.1720895E2,2.3861318E3,1.4220369E2,4.691866E1,1.0650358E1,2.4456522E1,1.8163123E2,5.4373985E1,1.7509243E1,4.824089E0,1.4914265E0,3.2677864E1,4.6492245E1,1.1595896E2,2.006788E1,1.312138E2,6.371437E0,1.1628513E1,1.2396911E1,4.955302E0,1.4197364E0,1.775765E1,1.3474915E2,2.0443315E2,7.952435E0,1.2728866E1,6.869284E0,1.8076357E1,2.30222E2,9.89187E0,9.144072E0,8.624072E0,3.1373602E2,3.0054037E2,1.7677705E2,2.9355434E1,2.5933672E1,1.16791405E2],"tree_param":{"num_deleted":"0","num_feature":"25","num_nodes":"125","size_leaf_vector":"1"}},{"base_weights":[-4.0151808E-1,-4.2066422E-1,-3.2832557E-1,-3.898905E-1,-4.4741708E-1,-2.8879395E-2,-3.4236205E-1,-3.112316E-1,-4.2523113E-1,-4.4917235E-1,1.0455122E-1,1.145716E-1,-3.296924E-1,-2.4482292E-1,-3.6683333E-1,-1.9089013E-1,-3.5288915E-1,-3.6475015E-1,-4.5025834E-1,-4.1214103E-1,-4.7006866E-1,4.0468556E-1,-1.590718E-1,-2.5029263E-1,2.9585984E-1,-4.5933798E-1,5.539189E-1,-2.4415828E-2,-3.3129948E-1,-3.8020638E-1,-1.24946386E-1,2.6419884E-1,-2.3996583E-1,-3.6219886E-1,3.9723104E-1,-4.7573927E-1,-2.3760743E-1,-4.5389232E-1,1.8918408E-1,-4.2789096E-1,-1.4599347E-1,-3.373736E-1,-4.793435E-1,-2.6930913E-1,8.3225614E-1,4.6676755E-1,-4.2161387E-1,5.17517E-1,-8.222122E-3,-5.379073E-1,1.3641949E-1,2.4277751E-1,1.2050018E-2,2.029808E-1,-3.3174485E-1,6.012063E-1,-3.4787667E-1,-1.9844191E-1,-4.0096524E-1,-2.7151895E-1,2.5211632E-1,3.9850804E-3,3.5524598E-1,1.8639752E-1,-7.874252E-2,-1.1039064E-1,1.7696728E-1,3.031589E-1,-1.994282E-2,-1.4591262E-1,1.6626397E-1,-8.203298E-2,9.093012E-2,-6.1271194E-2,-1.3822128E-1,-1.4741817E-1,1.6773933E-1,-1.3587445E-1,-9.339851E-2,-2.3139771E-2,-1.7867774E-1,7.940262E-2,-1.0839457E-1,1.913097E-1,-1.4407292E-1,2.0098306E-2,-1.2959826E-1,3.0700535E-1,2.1507565E-2,-1.04198985E-1,2.722638E-1,2.4820788E-2,-1.5772879E-1,-1.06398165E-2,3.2304272E-1,-7.119413E-2,2.785409E-1,4.797505E-2,-1.8726547E-1,2.8387427E-1,2.6478013E-2,-1.5333687E-1,-2.0557093E-2,-1.01804815E-1,3.014752E-1,-1.1707235E-1,-5.293278E-3,1.1094519E-1,-8.185036E-2,-1.0014547E-1,-1.338956E-1,5.6026634E-2,-1.07717805E-1,2.8726068E-1,-5.3113814E-2],"categories":[],"categories_nodes":[],"categories_segments":[],"categories_sizes":[],"default_left":[0,0,0,0,0,0,0,0,0,0,0,0,0,0,0,0,0,0,0,0,0,0,0,0,0,0,0,0,0,0,0,0,0,0,0,0,0,0,0,0,0,0,0,0,0,0,0,0,0,0,0,0,0,0,0,0,0,0,0,0,0,0,0,0,0,0,0,0,0,0,0,0,0,0,0,0,0,0,0,0,0,0,0,0,0,0,0,0,0,0,0,0,0,0,0,0,0,0,0,0,0,0,0,0,0,0,0,0,0,0,0,0,0,0,0],"id":8,"left_children":[1,3,5,7,9,11,13,15,17,19,21,23,25,27,29,31,33,35,37,39,41,43,-1,45,47,49,51,53,55,57,59,61,63,65,67,69,71,73,75,77,79,81,83,85,87,89,91,93,95,97,-1,-1,-1,99,101,103,105,107,109,111,113,-1,-1,-1,-1,-1,-1,-1,-1,-1,-1,-1,-1,-1,-1,-1,-1,-1,-1,-1,-1,-1,-1,-1,-1,-1,-1,-1,-1,-1,-1,-1,-1,-1,-1,-1,-1,-1,-1,-1,-1,-1,-1,-1,-1,-1,-1,-1,-1,-1,-1,-1,-1,-1,-1],"loss_changes":[1.1165039E1,5.0860596E0,7.038681E0,8.149841E0,3.3521118E0,3.3250768E0,3.7335205E0,4.5815735E0,2.9433594E0,2.4378662E0,2.4294338E0,3.5350368E0,3.1018493E0,6.1725597E0,4.0881805E0,5.43789E0,4.9464035E0,8.440697E0,3.4502563E0,5.1139526E0,2.505127E0,2.6622372E0,0E0,2.3969855E0,2.3912158E0,1.8405662E0,4.4415998E-1,6.528685E0,3.8080997E0,4.489975E0,3.852627E0,5.5012074E0,4.384468E0,3.9515533E0,2.6003604E0,3.8039703E0,5.595873E0,2.3667297E0,2.5124302E0,3.2582092E0,2.137116E0,2.1847973E0,2.3388977E0,2.4994224E-1,7.145145E-1,1.7248895E0,8.304362E-1,6.3779855E0,3.635554E0,1.3599243E0,0E0,0E0,0E0,4.5003924E0,1.8393292E0,2.0242982E0,3.2022152E0,5.432245E0,3.1580353E0,2.0643585E0,6.1287694E0,0E0,0E0,0E0,0E0,0E0,0E0,0E0,0E0,0E0,0E0,0E0,0E0,0E0,0E0,0E0,0E0,0E0,0E0,0E0,0E0,0E0,0E0,0E0,0E0,0E0,0E0,0E0,0E0,0E0,0E0,0E0,0E0,0E0,0E0,0E0,0E0,0E0,0E0,0E0,0E0,0E0,0E0,0E0,0E0,0E0,0E0,0E0,0E0,0E0,0E0,0E0,0E0,0E0,0E0],"parents":[2147483647,0,0,1,1,2,2,3,3,4,4,5,5,6,6,7,7,8,8,9,9,10,10,11,11,12,12,13,13,14,14,15,15,16,16,17,17,18,18,19,19,20,20,21,21,23,23,24,24,25,25,26,26,27,27,28,28,29,29,30,30,31,31,32,32,33,33,34,34,35,35,36,36,37,37,38,38,39,39,40,40,41,41,42,42,43,43,44,44,45,45,46,46,47,47,48,48,49,49,53,53,54,54,55,55,56,56,57,57,58,58,59,59,60,60],"right_children":[2,4,6,8,10,12,14,16,18,20,22,24,26,28,30,32,34,36,38,40,42,44,-1,46,48,50,52,54,56,58,60,62,64,66,68,70,72,74,76,78,80,82,84,86,88,90,92,94,96,98,-1,-1,-1,100,102,104,106,108,110,112,114,-1,-1,-1,-1,-1,-1,-1,-1,-1,-1,-1,-1,-1,-1,-1,-1,-1,-1,-1,-1,-1,-1,-1,-1,-1,-1,-1,-1,-1,-1,-1,-1,-1,-1,-1,-1,-1,-1,-1,-1,-1,-1,-1,-1,-1,-1,-1,-1,-1,-1,-1,-1,-1,-1],"split_conditions":[8.5125107E-1,-2.8437676E-2,-8.598916E-1,-1.625697E-1,2.3093042E0,8.447272E-1,-1.0240924E0,-6.662477E-1,-1.1877667E0,-3.2336906E-1,1.4448022E0,-7.092708E-2,1.7263243E0,5.216829E-1,1.4392918E0,-9.2701817E-1,1.0473807E0,-7.2960085E-1,1.5398281E0,1.2396747E0,-9.293203E-1,-2.110142E-1,-1.590718E-1,-8.2495445E-1,-1.151923E0,-8.7817633E-1,9.0937066E-1,1.5155348E0,-5.2660942E-2,-5.9015757E-1,1.6467016E0,1.1474532E0,-1.7518795E0,1.7582002E0,1.6080332E-1,1.0705295E0,6.441985E-1,-1.2180185E0,3.5076448E-1,4.6870965E-1,1.256003E0,-1.5676496E0,-2.966503E0,8.890683E-3,1.5247037E0,4.2520162E-1,-7.1599233E-1,1.0973471E0,6.188843E-1,-6.4370733E-1,1.3641949E-1,2.4277751E-1,1.2050018E-2,9.0797096E-1,2.1136625E0,-8.026641E-2,9.186909E-1,-9.742729E-1,8.429473E-1,5.0369585E-1,6.917504E-1,3.9850804E-3,3.5524598E-1,1.8639752E-1,-7.874252E-2,-1.1039064E-1,1.7696728E-1,3.031589E-1,-1.994282E-2,-1.4591262E-1,1.6626397E-1,-8.203298E-2,9.093012E-2,-6.1271194E-2,-1.3822128E-1,-1.4741817E-1,1.6773933E-1,-1.3587445E-1,-9.339851E-2,-2.3139771E-2,-1.7867774E-1,7.940262E-2,-1.0839457E-1,1.913097E-1,-1.4407292E-1,2.0098306E-2,-1.2959826E-1,3.0700535E-1,2.1507565E-2,-1.04198985E-1,2.722638E-1,2.4820788E-2,-1.5772879E-1,-1.06398165E-2,3.2304272E-1,-7.119413E-2,2.785409E-1,4.797505E-2,-1.8726547E-1,2.8387427E-1,2.6478013E-2,-1.5333687E-1,-2.0557093E-2,-1.01804815E-1,3.014752E-1,-1.1707235E-1,-5.293278E-3,1.1094519E-1,-8.185036E-2,-1.0014547E-1,-1.338956E-1,5.6026634E-2,-1.07717805E-1,2.8726068E-1,-5.3113814E-2],"split_indices":[23,2,7,1,15,20,1,2,10,6,13,15,9,8,12,11,24,11,18,10,4,18,0,15,7,7,1,16,10,11,22,9,15,15,10,13,15,23,24,14,7,20,8,5,17,22,14,24,19,0,0,0,0,23,11,2,2,4,18,15,6,0,0,0,0,0,0,0,0,0,0,0,0,0,0,0,0,0,0,0,0,0,0,0,0,0,0,0,0,0,0,0,0,0,0,0,0,0,0,0,0,0,0,0,0,0,0,0,0,0,0,0,0,0,0],"split_type":[0,0,0,0,0,0,0,0,0,0,0,0,0,0,0,0,0,0,0,0,0,0,0,0,0,0,0,0,0,0,0,0,0,0,0,0,0,0,0,0,0,0,0,0,0,0,0,0,0,0,0,0,0,0,0,0,0,0,0,0,0,0,0,0,0,0,0,0,0,0,0,0,0,0,0,0,0,0,0,0,0,0,0,0,0,0,0,0,0,0,0,0,0,0,0,0,0,0,0,0,0,0,0,0,0,0,0,0,0,0,0,0,0,0,0],"sum_hessian":[8.0647485E3,6.388782E3,1.6759661E3,2.9783572E3,3.4104253E3,7.5179756E1,1.6007863E3,9.263511E2,2.052006E3,3.3998E3,1.0625159E1,5.1323742E1,2.3856018E1,3.232724E2,1.2775138E3,2.396438E2,6.867073E2,6.0515576E2,1.4468502E3,1.2338905E3,2.1659094E3,7.4603386E0,3.164821E0,1.6909906E1,3.4413834E1,2.1222378E1,2.6336396E0,9.1456085E1,2.3181631E2,1.2100432E3,6.747069E1,2.2900375E1,2.1674342E2,6.7879987E2,7.907402E0,3.2163928E2,2.8351648E2,1.4389628E3,7.8875055E0,1.1643779E3,6.951261E1,1.4393993E2,2.0219696E3,3.0393865E0,4.420952E0,2.9284494E0,1.3981457E1,1.949863E1,1.4915205E1,1.9921537E1,1.3008411E0,1.3750403E0,1.2585993E0,5.275875E1,3.8697334E1,3.4330378E0,2.2838329E2,1.2511323E2,1.0849299E3,4.8786293E1,1.8684395E1,1.8789913E1,4.110462E0,4.8426194E0,2.119008E2,6.7532074E2,3.479133E0,2.896824E0,5.010578E0,3.188741E2,2.7651854E0,2.663577E2,1.7158764E1,3.922464E1,1.3997382E3,2.662014E0,5.2254915E0,9.5621136E2,2.081666E2,6.1296024E1,8.216585E0,5.12055E0,1.3881937E2,1.0572932E0,2.0209124E3,1.1826992E0,1.8566873E0,3.2570813E0,1.1638706E0,1.1030939E0,1.8253555E0,2.4282122E0,1.1553245E1,1.0275565E1,9.223065E0,1.2584094E1,2.331111E0,2.0989256E0,1.782261E1,6.085167E0,4.6673584E1,2.245385E1,1.6243484E1,1.0788906E0,2.3541474E0,2.0225491E2,2.6128363E1,1.4023261E1,1.11089966E2,4.407489E2,6.44181E2,7.6428056E0,4.114349E1,6.601787E0,1.2082608E1],"tree_param":{"num_deleted":"0","num_feature":"25","num_nodes":"115","size_leaf_vector":"1"}},{"base_weights":[1.2507254E-1,1.6680756E-1,-2.8641919E-2,1.8121578E-1,-1.6036789E-1,1.8517728E-1,-1.0702436E-1,2.6468396E-2,2.1809356E-1,-3.4662995E-1,6.974844E-2,2.9532248E-1,-1.1654001E-1,-2.82987E-1,-2.525089E-2,1.6694991E-1,-9.423846E-2,2.3229042E-1,-2.6826447E-1,-6.642359E-1,-2.697699E-1,-9.141135E-2,3.9863604E-1,-1.1891135E-1,3.6250603E-1,1.22480296E-1,-3.377395E-1,-2.981526E-1,9.433769E-1,1.6089974E-2,-5.273408E-1,2.5765222E-1,-1.2636116E-1,-3.66862E-1,-6.2504937E-3,2.517673E-1,-2.251331E-2,3.5932276E-1,-3.5703605E-1,3.0695533E-2,-6.914442E-1,-1.9817105E-2,-4.0990672E-1,6.1383724E-1,-2.0637845E-1,-1.7125902E-1,5.0990564E-1,2.3822981E-1,-5.929683E-1,4.0220273E-1,-2.3709396E-1,-2.606552E-2,6.3201815E-1,5.9060526E-1,-3.8659608E-1,-3.5184968E-1,-7.509135E-2,3.769508E-1,-1.010205E-1,-6.4916844E-3,6.216003E-1,-6.2779677E-1,-1.0272907E-2,-6.97183E-2,1.048901E-1,-8.766951E-2,1.3531767E-1,-1.6515581E-1,-4.5296334E-2,1.9036606E-1,-1.1327722E-2,3.980792E-3,8.169931E-2,-3.5682075E-2,7.641899E-2,2.459843E-1,-1.5998635E-1,-2.046042E-1,-7.042252E-2,-1.2211982E-1,-2.1771853E-1,2.378019E-1,-6.5284535E-2,-1.559675E-1,2.8779708E-2,2.3182149E-1,-1.315305E-1,-1.6778797E-1,2.751208E-2,1.917188E-1,-1.0405002E-1,1.5129684E-1,-2.1266711E-1,-2.0524217E-1,6.443853E-2,1.3558082E-1,-9.94901E-3,-1.4686346E-1,1.5915295E-1,-2.218274E-1,4.821585E-2,2.2966935E-1,-1.584177E-1,2.1038994E-1,6.6433474E-2,1.739023E-1,-1.310258E-1,-8.341911E-2,-1.7567869E-1,1.5420131E-1,-5.7314496E-2,2.2098236E-2,-5.3710602E-2,2.4725361E-1,-1.837725E-1,-3.4873754E-2,-1.9224866E-1,1.8928543E-1,-1.8312362E-1],"categories":[],"categories_nodes":[],"categories_segments":[],"categories_sizes":[],"default_left":[0,0,0,0,0,0,0,0,0,0,0,0,0,0,0,0,0,0,0,0,0,0,0,0,0,0,0,0,0,0,0,0,0,0,0,0,0,0,0,0,0,0,0,0,0,0,0,0,0,0,0,0,0,0,0,0,0,0,0,0,0,0,0,0,0,0,0,0,0,0,0,0,0,0,0,0,0,0,0,0,0,0,0,0,0,0,0,0,0,0,0,0,0,0,0,0,0,0,0,0,0,0,0,0,0,0,0,0,0,0,0,0,0,0,0,0,0,0,0],"id":9,"left_children":[1,3,5,7,9,11,13,15,17,19,21,23,25,27,29,31,33,35,37,39,41,43,45,47,49,51,53,55,57,59,61,63,65,67,69,71,73,75,77,-1,79,81,83,85,87,-1,89,91,93,95,97,99,101,103,105,107,109,-1,-1,111,113,115,117,-1,-1,-1,-1,-1,-1,-1,-1,-1,-1,-1,-1,-1,-1,-1,-1,-1,-1,-1,-1,-1,-1,-1,-1,-1,-1,-1,-1,-1,-1,-1,-1,-1,-1,-1,-1,-1,-1,-1,-1,-1,-1,-1,-1,-1,-1,-1,-1,-1,-1,-1,-1,-1,-1,-1,-1],"loss_changes":[6.547786E1,3.7866867E1,3.6558186E1,4.3870926E1,1.4558672E1,1.948163E1,2.295715E1,2.5125519E1,4.2932434E1,4.399748E0,8.120796E0,1.1981194E1,8.353436E0,9.69696E0,2.2647827E1,1.824825E1,1.91179E1,2.9947296E1,9.964729E0,8.18758E-1,5.340969E0,8.492417E0,5.722289E0,1.0404079E1,8.886726E0,5.791362E0,3.9437237E0,5.972454E0,2.9981747E0,1.3796294E1,4.3049297E0,2.3669285E1,1.5685381E1,7.626972E0,1.2211499E1,2.7485046E1,1.1508216E1,9.638052E0,6.007269E0,0E0,4.3518066E-2,9.157901E0,5.49094E0,2.7990475E0,9.46284E0,0E0,5.277602E0,9.250155E0,2.0861912E0,7.52372E0,4.825953E0,8.118211E0,3.0785146E0,2.8227925E-2,4.054058E0,6.794525E0,6.8228946E0,0E0,0E0,1.3475327E1,9.574395E0,3.8872528E-1,5.972459E0,0E0,0E0,0E0,0E0,0E0,0E0,0E0,0E0,0E0,0E0,0E0,0E0,0E0,0E0,0E0,0E0,0E0,0E0,0E0,0E0,0E0,0E0,0E0,0E0,0E0,0E0,0E0,0E0,0E0,0E0,0E0,0E0,0E0,0E0,0E0,0E0,0E0,0E0,0E0,0E0,0E0,0E0,0E0,0E0,0E0,0E0,0E0,0E0,0E0,0E0,0E0,0E0,0E0,0E0,0E0,0E0],"parents":[2147483647,0,0,1,1,2,2,3,3,4,4,5,5,6,6,7,7,8,8,9,9,10,10,11,11,12,12,13,13,14,14,15,15,16,16,17,17,18,18,19,19,20,20,21,21,22,22,23,23,24,24,25,25,26,26,27,27,28,28,29,29,30,30,31,31,32,32,33,33,34,34,35,35,36,36,37,37,38,38,40,40,41,41,42,42,43,43,44,44,46,46,47,47,48,48,49,49,50,50,51,51,52,52,53,53,54,54,55,55,56,56,59,59,60,60,61,61,62,62],"right_children":[2,4,6,8,10,12,14,16,18,20,22,24,26,28,30,32,34,36,38,40,42,44,46,48,50,52,54,56,58,60,62,64,66,68,70,72,74,76,78,-1,80,82,84,86,88,-1,90,92,94,96,98,100,102,104,106,108,110,-1,-1,112,114,116,118,-1,-1,-1,-1,-1,-1,-1,-1,-1,-1,-1,-1,-1,-1,-1,-1,-1,-1,-1,-1,-1,-1,-1,-1,-1,-1,-1,-1,-1,-1,-1,-1,-1,-1,-1,-1,-1,-1,-1,-1,-1,-1,-1,-1,-1,-1,-1,-1,-1,-1,-1,-1,-1,-1,-1,-1],"split_conditions":[7.519883E-1,1.0556964E0,-5.828415E-1,-1.0654521E0,4.228107E-1,1.6054211E0,-2.9577115E-1,-1.0847335E0,1.2474174E0,-5.9015757E-1,9.8475534E-1,-5.0356455E-2,5.9878323E-2,2.172169E0,1.7733991E0,-2.7256143E-1,-1.5812681E0,8.8060635E-1,-7.458254E-1,-6.9145125E-1,1.0960134E-1,-1.884325E0,-7.6364875E-1,5.9186953E-1,1.858586E0,4.3149397E-1,-1.8206738E0,6.9153315E-1,-2.2594713E-1,2.4240894E0,1.5939926E0,-2.408602E0,-1.3014265E0,6.278557E-2,-2.3441305E0,-1.1513888E0,6.211244E-1,1.2325901E-2,-2.6310584E-1,3.0695533E-2,-7.1935326E-1,-9.4755584E-1,1.0151577E0,-5.780333E-1,-4.579594E-2,-1.7125902E-1,4.693991E-1,1.1596063E0,7.297003E-1,1.693368E0,1.9106635E0,6.587191E-1,1.3062726E0,-2.5808869E-2,-1.7496623E-1,4.8146603E-1,-1.302654E0,3.769508E-1,-1.010205E-1,7.050674E-1,1.8045783E0,-6.8320936E-1,1.4231696E0,-6.97183E-2,1.048901E-1,-8.766951E-2,1.3531767E-1,-1.6515581E-1,-4.5296334E-2,1.9036606E-1,-1.1327722E-2,3.980792E-3,8.169931E-2,-3.5682075E-2,7.641899E-2,2.459843E-1,-1.5998635E-1,-2.046042E-1,-7.042252E-2,-1.2211982E-1,-2.1771853E-1,2.378019E-1,-6.5284535E-2,-1.559675E-1,2.8779708E-2,2.3182149E-1,-1.315305E-1,-1.6778797E-1,2.751208E-2,1.917188E-1,-1.0405002E-1,1.5129684E-1,-2.1266711E-1,-2.0524217E-1,6.443853E-2,1.3558082E-1,-9.94901E-3,-1.4686346E-1,1.5915295E-1,-2.218274E-1,4.821585E-2,2.2966935E-1,-1.584177E-1,2.1038994E-1,6.6433474E-2,1.739023E-1,-1.310258E-1,-8.341911E-2,-1.7567869E-1,1.5420131E-1,-5.7314496E-2,2.2098236E-2,-5.3710602E-2,2.4725361E-1,-1.837725E-1,-3.4873754E-2,-1.9224866E-1,1.8928543E-1,-1.8312362E-1],"split_indices":[24,16,0,13,3,22,4,1,8,11,20,7,12,19,24,0,14,21,19,23,11,8,1,20,13,6,2,3,6,4,4,24,19,6,3,4,14,10,9,0,1,1,13,2,11,0,0,13,4,16,6,5,1,1,11,0,7,0,0,10,7,7,5,0,0,0,0,0,0,0,0,0,0,0,0,0,0,0,0,0,0,0,0,0,0,0,0,0,0,0,0,0,0,0,0,0,0,0,0,0,0,0,0,0,0,0,0,0,0,0,0,0,0,0,0,0,0,0,0],"split_type":[0,0,0,0,0,0,0,0,0,0,0,0,0,0,0,0,0,0,0,0,0,0,0,0,0,0,0,0,0,0,0,0,0,0,0,0,0,0,0,0,0,0,0,0,0,0,0,0,0,0,0,0,0,0,0,0,0,0,0,0,0,0,0,0,0,0,0,0,0,0,0,0,0,0,0,0,0,0,0,0,0,0,0,0,0,0,0,0,0,0,0,0,0,0,0,0,0,0,0,0,0,0,0,0,0,0,0,0,0,0,0,0,0,0,0,0,0,0,0],"sum_hessian":[1.0204807E4,8.025671E3,2.1791362E3,7.6875703E3,3.381003E2,5.841829E2,1.5949532E3,1.4797847E3,6.2077856E3,1.8657523E2,1.5152509E2,4.2796927E2,1.5621365E2,5.0525958E2,1.0896936E3,6.8369775E2,7.960869E2,6.0322266E3,1.7555907E2,3.486436E1,1.5171086E2,1.02178276E2,4.934681E1,5.961724E1,3.6835202E2,7.529685E1,8.091681E1,4.9983536E2,5.4242396E0,1.0076908E3,8.200285E1,5.2230414E2,1.6139362E2,1.9346912E2,6.026178E2,5.6038843E3,4.2834238E2,2.1377699E1,1.5418138E2,1.100444E0,3.3763916E1,5.4911053E1,9.679981E1,1.3713795E1,8.846448E1,4.655209E0,4.46916E1,3.4285202E1,2.533204E1,3.4578824E2,2.256379E1,5.9035152E1,1.62617E1,3.4911628E0,7.7425644E1,4.023912E2,9.744414E1,4.373009E0,1.0512304E0,9.7241516E2,3.5275585E1,6.8483696E1,1.3519158E1,8.230167E1,4.4000247E2,1.25761185E2,3.5632435E1,1.0369732E2,8.977179E1,2.7345295E1,5.7527246E2,4.449541E2,5.15893E3,3.1823074E2,1.1011165E2,1.4154686E1,7.223013E0,4.090526E1,1.13276115E2,5.017593E0,2.8746323E1,1.0161876E1,4.4749176E1,7.948873E1,1.7311077E1,1.2145396E1,1.5683987E0,4.0105614E1,4.8358868E1,3.905758E1,5.6340203E0,2.7130438E1,7.154763E0,2.2900322E1,2.4317179E0,3.103032E2,3.5485043E1,1.7252123E1,5.311666E0,1.1636184E1,4.7398968E1,1.4887902E1,1.3737979E0,1.993643E0,1.4975199E0,3.2996836E0,7.412596E1,3.0750992E2,9.4881294E1,1.5461654E1,8.198249E1,6.6436694E2,3.0804825E2,3.0587185E1,4.688401E0,1.9477657E0,6.653593E1,6.5110373E0,7.008121E0],"tree_param":{"num_deleted":"0","num_feature":"25","num_nodes":"119","size_leaf_vector":"1"}},{"base_weights":[1.267629E-1,1.0535922E-1,3.1591183E-1,1.401614E-1,-5.331277E-3,4.748859E-1,2.6569736E-1,1.0556686E-1,2.559585E-1,-1.6893528E-1,4.4223636E-2,1.4093357E-1,6.0136455E-1,1.6741629E-1,3.4687585E-1,4.1549966E-1,9.049031E-2,2.846303E-1,2.322319E-2,-1.9335814E-1,8.049805E-1,-7.147004E-3,2.7455178E-1,4.7012E-1,-1.5061218E-1,6.693482E-1,2.7423123E-1,-8.645177E-2,2.3569407E-1,6.119351E-1,3.02874E-1,3.4273612E-1,7.687861E-1,7.772786E-2,4.4779524E-1,2.5607184E-1,5.341251E-1,3.240422E-1,-1.8998498E-1,-5.451783E-1,-1.3296768E-1,1.0050739E0,-1.2090293E-2,-2.6509235E-2,6.346051E-1,6.5732193E-1,1.6180827E-1,2.7348796E-1,3.2924947E-1,-4.3123427E-1,7.7211654E-1,4.8465684E-1,7.9291725E-1,-4.4722304E-1,5.55846E-1,-3.841862E-1,4.005882E-1,3.6925086E-1,2.930878E-2,-9.825613E-2,6.5596306E-1,2.7509514E-2,3.563931E-1,-4.6462823E-2,1.19177245E-1,2.4264073E-1,-5.5805307E-2,5.9593838E-2,1.3050443E-2,-8.342391E-2,1.5564272E-1,9.470066E-2,4.175966E-2,2.5127542E-1,1.2754421E-1,-2.0446827E-1,1.5506545E-1,9.646418E-2,-1.019843E-1,-2.0546527E-1,1.5391703E-1,9.634062E-2,-6.196286E-2,3.3745798E-1,4.632759E-2,8.868082E-2,-1.793017E-2,2.2929564E-1,1.024903E-2,7.2055355E-2,2.5611964E-1,2.1173638E-1,2.8586002E-2,3.58846E-2,1.8832687E-1,-1.9386546E-1,2.3126137E-1,2.6668575E-1,2.496692E-2,1.9777738E-1,-9.68805E-2,2.4882162E-1,8.482319E-2,1.546E-1,-2.0341666E-1,7.521609E-2,2.1378016E-1,5.8470733E-2,-1.7666939E-1,1.733835E-1,-1.7057817E-1,-1.4474334E-1,1.3160467E-1,-2.9768987E-2,1.5407974E-1,6.497881E-2,2.3009427E-1,-2.0578157E-2,2.2718939E-1,-2.0610813E-2,1.1669515E-1],"categories":[],"categories_nodes":[],"categories_segments":[],"categories_sizes":[],"default_left":[0,0,0,0,0,0,0,0,0,0,0,0,0,0,0,0,0,0,0,0,0,0,0,0,0,0,0,0,0,0,0,0,0,0,0,0,0,0,0,0,0,0,0,0,0,0,0,0,0,0,0,0,0,0,0,0,0,0,0,0,0,0,0,0,0,0,0,0,0,0,0,0,0,0,0,0,0,0,0,0,0,0,0,0,0,0,0,0,0,0,0,0,0,0,0,0,0,0,0,0,0,0,0,0,0,0,0,0,0,0,0,0,0,0,0,0,0,0,0,0,0],"id":10,"left_children":[1,3,5,7,9,11,13,15,17,19,21,23,25,27,29,31,33,35,37,39,41,43,45,47,49,51,53,55,57,59,61,63,65,67,69,71,73,75,77,79,81,83,-1,85,87,89,91,-1,93,95,97,99,101,103,105,107,109,111,113,-1,115,117,119,-1,-1,-1,-1,-1,-1,-1,-1,-1,-1,-1,-1,-1,-1,-1,-1,-1,-1,-1,-1,-1,-1,-1,-1,-1,-1,-1,-1,-1,-1,-1,-1,-1,-1,-1,-1,-1,-1,-1,-1,-1,-1,-1,-1,-1,-1,-1,-1,-1,-1,-1,-1,-1,-1,-1,-1,-1,-1],"loss_changes":[4.132451E1,3.535942E1,8.159706E0,2.7947083E1,1.7815502E1,1.0385479E1,6.2534027E0,2.5094673E1,1.0707657E1,1.2306661E1,1.9958803E1,6.731312E0,3.808197E0,6.2565937E0,4.856636E0,6.143059E0,2.3359764E1,1.0048164E1,1.14265375E1,1.053297E1,2.186983E0,1.7165134E1,1.3168358E1,1.74224E0,1.0059058E1,2.991356E0,6.867251E0,1.131743E1,7.8116693E0,2.7200775E0,5.4832726E0,5.717186E0,1.7459679E0,2.0496347E1,9.2535515E0,8.9032135E0,4.4686584E0,1.4676971E1,8.112568E0,1.1115206E1,1.4344543E1,8.758507E-1,0E0,1.4379288E1,3.1250057E0,5.502413E0,8.579264E0,0E0,1.5807345E0,8.1074E0,6.598811E-1,8.936088E0,1.3859024E0,2.5046902E0,9.63346E-1,5.8391886E0,5.4332447E0,1.0395542E1,7.0592475E0,0E0,2.6722183E0,4.3819833E0,4.349167E0,0E0,0E0,0E0,0E0,0E0,0E0,0E0,0E0,0E0,0E0,0E0,0E0,0E0,0E0,0E0,0E0,0E0,0E0,0E0,0E0,0E0,0E0,0E0,0E0,0E0,0E0,0E0,0E0,0E0,0E0,0E0,0E0,0E0,0E0,0E0,0E0,0E0,0E0,0E0,0E0,0E0,0E0,0E0,0E0,0E0,0E0,0E0,0E0,0E0,0E0,0E0,0E0,0E0,0E0,0E0,0E0,0E0,0E0],"parents":[2147483647,0,0,1,1,2,2,3,3,4,4,5,5,6,6,7,7,8,8,9,9,10,10,11,11,12,12,13,13,14,14,15,15,16,16,17,17,18,18,19,19,20,20,21,21,22,22,23,23,24,24,25,25,26,26,27,27,28,28,29,29,30,30,31,31,32,32,33,33,34,34,35,35,36,36,37,37,38,38,39,39,40,40,41,41,43,43,44,44,45,45,46,46,48,48,49,49,50,50,51,51,52,52,53,53,54,54,55,55,56,56,57,57,58,58,60,60,61,61,62,62],"right_children":[2,4,6,8,10,12,14,16,18,20,22,24,26,28,30,32,34,36,38,40,42,44,46,48,50,52,54,56,58,60,62,64,66,68,70,72,74,76,78,80,82,84,-1,86,88,90,92,-1,94,96,98,100,102,104,106,108,110,112,114,-1,116,118,120,-1,-1,-1,-1,-1,-1,-1,-1,-1,-1,-1,-1,-1,-1,-1,-1,-1,-1,-1,-1,-1,-1,-1,-1,-1,-1,-1,-1,-1,-1,-1,-1,-1,-1,-1,-1,-1,-1,-1,-1,-1,-1,-1,-1,-1,-1,-1,-1,-1,-1,-1,-1,-1,-1,-1,-1,-1,-1],"split_conditions":[1.053193E0,6.536505E-1,-7.1935326E-1,7.50114E-1,4.714228E-2,-1.1328949E0,1.4604584E0,-1.4044869E0,2.915606E-1,1.9998245E0,5.5212975E-1,-8.5261375E-1,1.6499263E0,-6.992246E-1,-1.4830358E-1,3.596648E-1,1.0922534E0,4.693991E-1,-1.7496623E-1,-1.796974E0,2.1544535E0,2.0211205E0,2.9862386E-1,1.6231426E0,8.6139816E-1,3.4692702E-1,4.5900997E-2,5.1108706E-1,3.2980493E-1,-3.5563169E0,-6.5410304E-1,-5.828415E-1,1.2933867E0,-1.2460536E0,-1.2914524E0,-4.5119748E-1,-2.0237733E-1,-1.884325E0,5.986036E-2,-2.6481324E-1,-4.5002988E-1,1.0354615E0,-1.2090293E-2,-8.1848836E-1,8.19884E-1,1.3272657E-1,-1.3241165E0,2.7348796E-1,2.282447E0,2.1228628E0,1.4448022E0,1.9045968E-1,6.9125116E-1,-1.4732115E0,8.398508E-1,-3.490927E-1,2.7194366E0,-1.6123699E0,1.4054317E0,-9.825613E-2,-1.0238163E0,1.5004354E0,-1.299461E-1,-4.6462823E-2,1.19177245E-1,2.4264073E-1,-5.5805307E-2,5.9593838E-2,1.3050443E-2,-8.342391E-2,1.5564272E-1,9.470066E-2,4.175966E-2,2.5127542E-1,1.2754421E-1,-2.0446827E-1,1.5506545E-1,9.646418E-2,-1.019843E-1,-2.0546527E-1,1.5391703E-1,9.634062E-2,-6.196286E-2,3.3745798E-1,4.632759E-2,8.868082E-2,-1.793017E-2,2.2929564E-1,1.024903E-2,7.2055355E-2,2.5611964E-1,2.1173638E-1,2.8586002E-2,3.58846E-2,1.8832687E-1,-1.9386546E-1,2.3126137E-1,2.6668575E-1,2.496692E-2,1.9777738E-1,-9.68805E-2,2.4882162E-1,8.482319E-2,1.546E-1,-2.0341666E-1,7.521609E-2,2.1378016E-1,5.8470733E-2,-1.7666939E-1,1.733835E-1,-1.7057817E-1,-1.4474334E-1,1.3160467E-1,-2.9768987E-2,1.5407974E-1,6.497881E-2,2.3009427E-1,-2.0578157E-2,2.2718939E-1,-2.0610813E-2,1.1669515E-1],"split_indices":[11,1,1,16,0,0,11,12,1,7,13,4,23,5,20,9,7,0,11,3,15,12,15,21,8,18,3,1,3,4,7,0,20,19,0,1,5,8,9,16,14,19,0,23,18,23,10,0,18,17,13,17,0,1,2,22,3,12,22,0,14,1,19,0,0,0,0,0,0,0,0,0,0,0,0,0,0,0,0,0,0,0,0,0,0,0,0,0,0,0,0,0,0,0,0,0,0,0,0,0,0,0,0,0,0,0,0,0,0,0,0,0,0,0,0,0,0,0,0,0,0],"split_type":[0,0,0,0,0,0,0,0,0,0,0,0,0,0,0,0,0,0,0,0,0,0,0,0,0,0,0,0,0,0,0,0,0,0,0,0,0,0,0,0,0,0,0,0,0,0,0,0,0,0,0,0,0,0,0,0,0,0,0,0,0,0,0,0,0,0,0,0,0,0,0,0,0,0,0,0,0,0,0,0,0,0,0,0,0,0,0,0,0,0,0,0,0,0,0,0,0,0,0,0,0,0,0,0,0,0,0,0,0,0,0,0,0,0,0,0,0,0,0,0,0],"sum_hessian":[1.0214629E4,9.177662E3,1.0369669E3,6.982142E3,2.1955205E3,2.468876E2,7.900793E2,5.3775137E3,1.6046279E3,5.098517E2,1.6856687E3,6.839987E1,1.7848775E2,3.5877737E2,4.3130188E2,2.4822034E2,5.1292935E3,1.4284297E3,1.7619821E2,4.9816083E2,1.1690893E1,1.3790621E3,3.0660657E2,3.1838394E1,3.6561474E1,1.4691112E2,3.1576628E1,7.5985306E1,2.8279208E2,5.9567974E1,3.7173392E2,2.0746135E2,4.075899E1,4.953576E3,1.7571747E2,1.283536E3,1.448937E2,7.286787E1,1.03330345E2,7.180642E1,4.263544E2,9.3003025E0,2.3905904E0,1.3396039E3,3.9458344E1,6.8662735E1,2.3794383E2,6.377889E0,2.5460505E1,2.8443756E1,8.117719E0,6.0863792E1,8.6047325E1,8.700135E0,2.2876492E1,4.728841E1,2.8696894E1,1.7120934E2,1.1158274E2,2.3784497E0,5.718952E1,6.07385E1,3.1099542E2,2.0304363E1,1.8715698E2,3.9266235E1,1.4927564E0,1.0917465E3,3.8618296E3,1.5399014E1,1.6031845E2,8.489369E2,4.3459912E2,3.651849E1,1.0837521E2,1.1317415E1,6.155045E1,2.316588E1,8.016447E1,6.3743893E1,8.062524E0,5.897826E1,3.6737616E2,7.8697505E0,1.4305522E0,1.2463124E2,1.2149725E3,3.2224045E1,7.234298E0,2.2692047E1,4.5970688E1,2.4879778E1,2.1306406E2,1.577959E1,9.680916E0,2.4520882E1,3.9228735E0,6.6923013E0,1.4254172E0,5.0195267E1,1.0668524E1,7.971994E1,6.327381E0,1.4444352E0,7.2557E0,8.646113E0,1.4230378E1,1.2363227E1,3.4925182E1,2.4599037E1,4.0978556E0,1.2456308E1,1.5875304E2,8.8806984E1,2.2775755E1,1.2130914E1,4.505861E1,5.447136E1,6.2671404E0,2.20663E1,2.889291E2],"tree_param":{"num_deleted":"0","num_feature":"25","num_nodes":"121","size_leaf_vector":"1"}},{"base_weights":[-3.5090417E-1,-3.7029696E-1,-2.7604598E-1,-3.4347144E-1,-4.020126E-1,1.4598312E-2,-2.8996128E-1,-2.888838E-1,-3.892181E-1,-3.6348477E-1,-4.3302694E-1,1.3398188E-1,-2.622377E-1,-1.8511765E-1,-3.1275094E-1,-1.642544E-1,-3.261462E-1,-4.0051326E-1,-2.1710649E-1,-9.688537E-2,-3.8072038E-1,-1.4759164E-1,-4.3950534E-1,-5.8880493E-2,4.256474E-1,-5.391351E-1,3.2543042E-1,2.7407995E-1,-2.350831E-1,-3.273015E-1,-1.0411156E-1,-2.905504E-1,-2.058459E-3,3.219471E-2,-3.3797154E-1,-3.7930197E-1,-4.8570523E-1,-3.6757078E-2,-4.1406292E-1,-1.820585E-1,6.048655E-1,-4.1107267E-1,-2.3947927E-1,3.1974244E-1,-2.8007418E-1,-4.452554E-1,-2.1733285E-1,1.5045936E-1,-1.7594397E-1,8.5726E-1,-1.8317565E-1,-1.8033487E-1,3.998658E-2,7.29527E-1,-1.3701567E-1,1.1039546E0,-3.0349053E-2,2.9024047E-1,-2.68248E-1,-1.4745934E-1,-3.4746182E-1,-2.2214867E-1,1.8417212E-1,-6.849542E-2,-1.5295598E-1,1.934096E-1,-1.7617304E-2,1.2110561E-1,-8.5294634E-2,-1.0978061E-1,-6.645999E-2,-1.14912055E-1,1.5543915E-1,1.3093314E-1,-1.4738174E-1,9.002767E-2,-1.1593462E-1,4.0888276E-2,-1.3784826E-1,-7.099358E-2,1.9344546E-1,1.7847678E-2,3.1808388E-1,-1.2737286E-1,-1.6350696E-3,7.9273395E-2,-8.457723E-2,3.161569E-1,-5.0818626E-2,-5.243279E-2,-1.3735452E-1,-4.9811512E-2,-1.350142E-1,-1.2508586E-1,8.070708E-2,1.84863E-1,-4.6986684E-2,-1.05821826E-1,3.0440918E-1,-1.3461801E-1,2.150711E-1,4.7197845E-2,3.2113495E-1,4.1391736E-1,6.0762432E-3,-7.674064E-2,1.295109E-1,2.2239329E-1,-7.97101E-2,-8.9762226E-2,1.254355E-2,-9.422755E-2,2.6137901E-2,-1.08689874E-1,-5.184656E-2,-4.956504E-3,-1.2006918E-1,2.191657E-1,-4.817199E-2],"categories":[],"categories_nodes":[],"categories_segments":[],"categories_sizes":[],"default_left":[0,0,0,0,0,0,0,0,0,0,0,0,0,0,0,0,0,0,0,0,0,0,0,0,0,0,0,0,0,0,0,0,0,0,0,0,0,0,0,0,0,0,0,0,0,0,0,0,0,0,0,0,0,0,0,0,0,0,0,0,0,0,0,0,0,0,0,0,0,0,0,0,0,0,0,0,0,0,0,0,0,0,0,0,0,0,0,0,0,0,0,0,0,0,0,0,0,0,0,0,0,0,0,0,0,0,0,0,0,0,0,0,0,0,0,0,0,0,0],"id":11,"left_children":[1,3,5,7,9,11,13,15,17,19,21,23,25,27,29,31,33,35,37,39,41,43,45,47,49,51,53,55,57,59,61,63,65,67,69,71,73,75,77,79,81,83,85,87,89,91,93,95,-1,97,99,-1,-1,101,-1,103,105,107,109,111,113,115,117,-1,-1,-1,-1,-1,-1,-1,-1,-1,-1,-1,-1,-1,-1,-1,-1,-1,-1,-1,-1,-1,-1,-1,-1,-1,-1,-1,-1,-1,-1,-1,-1,-1,-1,-1,-1,-1,-1,-1,-1,-1,-1,-1,-1,-1,-1,-1,-1,-1,-1,-1,-1,-1,-1,-1,-1],"loss_changes":[1.053595E1,4.8112183E0,6.118225E0,7.774933E0,3.0208435E0,2.349348E0,3.3892212E0,6.652191E0,3.2480469E0,5.4424133E0,2.6503296E0,2.814337E0,3.663651E0,6.031065E0,3.559227E0,6.8488665E0,4.717041E0,2.7227173E0,3.8151612E0,4.5182734E0,4.7016754E0,2.2003505E0,1.7368164E0,3.4819808E0,5.375439E0,7.0308685E-1,2.7002153E0,6.59735E0,4.1733236E0,3.9588013E0,2.7166314E0,2.4491243E0,5.4394755E0,4.3937864E0,3.4198532E0,4.5346985E0,1.8424606E0,6.875866E0,1.3489666E0,3.1558702E0,1.977011E0,5.038162E0,4.360277E0,3.0501173E0,4.271903E-1,1.7958984E0,3.8172674E0,3.3566494E0,0E0,2.605177E0,2.487698E0,0E0,0E0,8.6996675E-1,0E0,2.0639315E0,2.1919284E0,3.8179564E0,2.140008E0,4.4532294E0,2.5125504E0,2.0529118E0,4.523027E0,0E0,0E0,0E0,0E0,0E0,0E0,0E0,0E0,0E0,0E0,0E0,0E0,0E0,0E0,0E0,0E0,0E0,0E0,0E0,0E0,0E0,0E0,0E0,0E0,0E0,0E0,0E0,0E0,0E0,0E0,0E0,0E0,0E0,0E0,0E0,0E0,0E0,0E0,0E0,0E0,0E0,0E0,0E0,0E0,0E0,0E0,0E0,0E0,0E0,0E0,0E0,0E0,0E0,0E0,0E0,0E0],"parents":[2147483647,0,0,1,1,2,2,3,3,4,4,5,5,6,6,7,7,8,8,9,9,10,10,11,11,12,12,13,13,14,14,15,15,16,16,17,17,18,18,19,19,20,20,21,21,22,22,23,23,24,24,25,25,26,26,27,27,28,28,29,29,30,30,31,31,32,32,33,33,34,34,35,35,36,36,37,37,38,38,39,39,40,40,41,41,42,42,43,43,44,44,45,45,46,46,47,47,49,49,50,50,53,53,55,55,56,56,57,57,58,58,59,59,60,60,61,61,62,62],"right_children":[2,4,6,8,10,12,14,16,18,20,22,24,26,28,30,32,34,36,38,40,42,44,46,48,50,52,54,56,58,60,62,64,66,68,70,72,74,76,78,80,82,84,86,88,90,92,94,96,-1,98,100,-1,-1,102,-1,104,106,108,110,112,114,116,118,-1,-1,-1,-1,-1,-1,-1,-1,-1,-1,-1,-1,-1,-1,-1,-1,-1,-1,-1,-1,-1,-1,-1,-1,-1,-1,-1,-1,-1,-1,-1,-1,-1,-1,-1,-1,-1,-1,-1,-1,-1,-1,-1,-1,-1,-1,-1,-1,-1,-1,-1,-1,-1,-1,-1,-1],"split_conditions":[8.643902E-1,1.246227E-1,-8.598916E-1,4.842805E-2,-1.1303821E-1,9.591964E-1,-1.0847335E0,-4.0076777E-1,1.8223575E0,-1.4870908E0,-2.5673046E0,1.0973471E0,-1.084435E0,2.0820047E-1,1.3390837E0,-2.7334693E-1,-1.2208979E0,1.4390886E0,6.0325164E-1,-1.3288087E0,2.7739894E-1,5.028775E-1,1.2276024E0,-1.626233E-1,-1.151923E0,1.0944912E0,1.2110593E0,7.865934E-1,1.01774186E-1,-5.9015757E-1,1.6054211E0,6.464426E-1,-8.9021116E-1,2.5431874E-1,4.8635083E-1,1.8593537E0,-1.676973E0,-9.446529E-1,-1.1200416E0,2.7533448E-1,-6.8986833E-1,1.1847857E0,-1.9410793E-1,-4.7966185E0,5.1190364E-1,-1.3435181E0,6.400472E-1,-8.9580196E-1,-1.7594397E-1,4.5518255E-1,6.188843E-1,-1.8033487E-1,3.998658E-2,3.1405964E-1,-1.3701567E-1,1.2873664E0,1.9825673E0,5.0596786E-1,9.186909E-1,9.6059155E-1,1.907751E0,1.1005592E0,6.917504E-1,-6.849542E-2,-1.5295598E-1,1.934096E-1,-1.7617304E-2,1.2110561E-1,-8.5294634E-2,-1.0978061E-1,-6.645999E-2,-1.14912055E-1,1.5543915E-1,1.3093314E-1,-1.4738174E-1,9.002767E-2,-1.1593462E-1,4.0888276E-2,-1.3784826E-1,-7.099358E-2,1.9344546E-1,1.7847678E-2,3.1808388E-1,-1.2737286E-1,-1.6350696E-3,7.9273395E-2,-8.457723E-2,3.161569E-1,-5.0818626E-2,-5.243279E-2,-1.3735452E-1,-4.9811512E-2,-1.350142E-1,-1.2508586E-1,8.070708E-2,1.84863E-1,-4.6986684E-2,-1.05821826E-1,3.0440918E-1,-1.3461801E-1,2.150711E-1,4.7197845E-2,3.2113495E-1,4.1391736E-1,6.0762432E-3,-7.674064E-2,1.295109E-1,2.2239329E-1,-7.97101E-2,-8.9762226E-2,1.254355E-2,-9.422755E-2,2.6137901E-2,-1.08689874E-1,-5.184656E-2,-4.956504E-3,-1.2006918E-1,2.191657E-1,-4.817199E-2],"split_indices":[23,2,7,1,12,21,1,10,12,22,22,24,7,10,12,4,12,1,9,19,11,7,21,2,7,5,23,20,5,11,22,22,6,0,17,8,17,2,14,3,11,17,5,0,7,11,3,10,0,22,19,0,0,6,0,23,21,8,2,22,23,22,6,0,0,0,0,0,0,0,0,0,0,0,0,0,0,0,0,0,0,0,0,0,0,0,0,0,0,0,0,0,0,0,0,0,0,0,0,0,0,0,0,0,0,0,0,0,0,0,0,0,0,0,0,0,0,0,0],"split_type":[0,0,0,0,0,0,0,0,0,0,0,0,0,0,0,0,0,0,0,0,0,0,0,0,0,0,0,0,0,0,0,0,0,0,0,0,0,0,0,0,0,0,0,0,0,0,0,0,0,0,0,0,0,0,0,0,0,0,0,0,0,0,0,0,0,0,0,0,0,0,0,0,0,0,0,0,0,0,0,0,0,0,0,0,0,0,0,0,0,0,0,0,0,0,0,0,0,0,0,0,0,0,0,0,0,0,0,0,0,0,0,0,0,0,0,0,0,0,0],"sum_hessian":[7.3270093E3,5.816292E3,1.510717E3,3.157481E3,2.658811E3,6.902227E1,1.4416948E3,1.4429651E3,1.7145159E3,1.1914476E3,1.4673634E3,4.858595E1,2.0436323E1,2.5905182E2,1.182643E3,3.3336984E2,1.1095952E3,1.6076815E3,1.06834335E2,7.2751526E1,1.1186962E3,3.309265E1,1.4342708E3,2.9727148E1,1.8858803E1,1.3947246E1,6.489077E0,2.4981247E1,2.3407057E2,1.1050106E3,7.763243E1,1.8698228E2,1.4638757E2,3.5392178E1,1.074203E3,1.2915585E3,3.1612302E2,5.6387737E1,5.04466E1,6.5537636E1,7.21389E0,9.1924304E2,1.9945306E2,6.9970365E0,2.6095615E1,1.3971079E3,3.7162857E1,2.1794422E1,7.932725E0,1.0796668E1,8.062136E0,1.2867245E1,1.0800009E0,4.3229227E0,2.1661541E0,5.9997087E0,1.8981539E1,1.3439574E1,2.20631E2,1.1222359E2,9.92787E2,5.5242798E1,2.2389631E1,1.4724045E2,3.9741825E1,1.0956634E1,1.3543094E2,1.6155226E1,1.9236952E1,8.644533E2,2.0974974E2,1.2867717E3,4.786779E0,1.4325943E0,3.1469043E2,2.8793503E1,2.7594233E1,3.694247E0,4.6752354E1,6.2148663E1,3.3889723E0,3.7972238E0,3.4166663E0,8.895815E2,2.9661583E1,1.5094143E1,1.8435893E2,2.3362298E0,4.6608067E0,1.7633924E1,8.461692E0,2.417397E1,1.372934E3,2.6449594E1,1.0713263E1,8.259928E0,1.3534494E1,1.1002305E0,9.696437E0,6.612657E0,1.4494783E0,2.159655E0,2.1632679E0,4.564912E0,1.4347968E0,1.3056932E1,5.924605E0,7.235507E0,6.204067E0,2.0063283E2,1.9998156E1,6.541713E1,4.6806454E1,9.140528E2,7.8734184E1,2.6145721E1,2.9097076E1,8.228824E0,1.4160807E1],"tree_param":{"num_deleted":"0","num_feature":"25","num_nodes":"119","size_leaf_vector":"1"}},{"base_weights":[9.9245034E-2,1.1926704E-1,-1.2347223E-1,8.2568966E-2,2.2004823E-1,-8.347085E-2,-4.007247E-1,-2.0862563E-1,1.0103537E-1,3.559298E-1,1.7734545E-1,-3.886799E-1,-4.1303903E-2,-5.103418E-1,1.1753096E-2,-7.139295E-2,-4.8486644E-1,1.2429617E-1,-1.4422081E-1,3.7714732E-1,-5.3437155E-1,2.226668E-1,-5.199091E-2,-1.5555865E-1,-2.1354668E-1,-2.7030402E-1,2.8968224E-2,-5.461603E-1,2.2166274E-1,5.0471514E-1,-5.236415E-1,2.5154047E-2,-4.833787E-1,-6.1313733E-2,-5.418656E-1,1.3398704E-1,-3.0811346E-1,-5.1842356E-1,-5.37532E-2,-5.6421965E-1,3.9342558E-1,-2.1276306E-1,-2.6061364E-2,-1.11338615E-1,2.5175256E-1,-3.3245504E-1,9.304837E-2,-4.422151E-1,2.8556117E-1,1.8656322E-1,-4.8367667E-1,-8.152228E-2,1.7316337E-1,-2.3805678E-2,-5.67451E-1,2.243376E-1,-1.3691813E-1,-2.7615497E-2,1.1118207E0,-1.7514962E-1,-1.2539387E-3,2.4544649E-1,-6.7161038E-3,-1.7599688E-1,7.089257E-2,-2.0773178E-1,1.5233505E-1,-6.766174E-2,-1.9139713E-1,4.3368846E-2,-5.833224E-2,2.2569907E-1,-1.1353774E-1,2.0434363E-1,-1.6913813E-1,-6.4677976E-2,5.624113E-2,1.6367266E-1,-2.4424076E-1,1.6447465E-1,8.23012E-2,1.8740195E-1,-1.5438217E-1,2.2390474E-2,-1.7940435E-1,8.6374074E-2,4.995043E-3,9.529621E-2,-1.4803128E-1,-2.518412E-1,4.73097E-2,2.9295882E-2,-1.9884452E-1,1.4778677E-1,-1.7057078E-1,-1.3772392E-1,1.7639285E-1,5.504225E-3,-1.691096E-1,2.9166847E-2,-8.737457E-2,8.450627E-2,-1.0211855E-1,1.8069041E-1,-1.3419928E-1,-4.5395456E-2,-1.7875151E-1,1.7247105E-1,-1.6762364E-1,1.0515725E-1,3.91837E-1],"categories":[],"categories_nodes":[],"categories_segments":[],"categories_sizes":[],"default_left":[0,0,0,0,0,0,0,0,0,0,0,0,0,0,0,0,0,0,0,0,0,0,0,0,0,0,0,0,0,0,0,0,0,0,0,0,0,0,0,0,0,0,0,0,0,0,0,0,0,0,0,0,0,0,0,0,0,0,0,0,0,0,0,0,0,0,0,0,0,0,0,0,0,0,0,0,0,0,0,0,0,0,0,0,0,0,0,0,0,0,0,0,0,0,0,0,0,0,0,0,0,0,0,0,0,0,0,0,0,0,0],"id":12,"left_children":[1,3,5,7,9,11,13,15,17,19,21,23,25,27,29,31,33,35,37,39,41,43,45,47,-1,49,51,53,55,57,59,61,63,65,67,69,71,73,75,77,79,-1,81,83,85,87,89,91,93,95,97,99,101,103,105,-1,-1,107,109,-1,-1,-1,-1,-1,-1,-1,-1,-1,-1,-1,-1,-1,-1,-1,-1,-1,-1,-1,-1,-1,-1,-1,-1,-1,-1,-1,-1,-1,-1,-1,-1,-1,-1,-1,-1,-1,-1,-1,-1,-1,-1,-1,-1,-1,-1,-1,-1,-1,-1,-1,-1],"loss_changes":[4.5264908E1,3.4418335E1,9.254749E0,3.673291E1,1.4355171E1,9.419516E0,4.7686024E0,1.5411863E1,3.6647118E1,1.1406624E1,1.9683548E1,6.584508E0,1.0391926E1,2.303568E0,6.3591747E0,1.088673E1,3.2275066E0,2.4618301E1,1.8817179E1,9.109108E0,1.2453856E0,1.5382652E1,1.2768075E1,6.816718E0,0E0,1.4870173E1,7.895244E0,8.7225914E-1,1.9803274E0,4.0808306E0,3.590269E-1,8.404352E0,4.0002956E0,6.5106015E0,3.4719734E0,1.9955482E1,9.8977585E0,6.276226E0,1.7585054E1,3.292347E0,1.0371696E1,0E0,1.8085924E0,1.1566762E1,1.2358429E1,1.1349712E1,1.2622162E1,3.9307904E0,4.073281E0,1.2966344E1,4.173332E0,1.0552755E1,1.2074234E1,1.3733275E0,8.133259E-1,0E0,0E0,2.7703087E0,4.118147E-1,0E0,0E0,0E0,0E0,0E0,0E0,0E0,0E0,0E0,0E0,0E0,0E0,0E0,0E0,0E0,0E0,0E0,0E0,0E0,0E0,0E0,0E0,0E0,0E0,0E0,0E0,0E0,0E0,0E0,0E0,0E0,0E0,0E0,0E0,0E0,0E0,0E0,0E0,0E0,0E0,0E0,0E0,0E0,0E0,0E0,0E0,0E0,0E0,0E0,0E0,0E0,0E0],"parents":[2147483647,0,0,1,1,2,2,3,3,4,4,5,5,6,6,7,7,8,8,9,9,10,10,11,11,12,12,13,13,14,14,15,15,16,16,17,17,18,18,19,19,20,20,21,21,22,22,23,23,25,25,26,26,27,27,28,28,29,29,30,30,31,31,32,32,33,33,34,34,35,35,36,36,37,37,38,38,39,39,40,40,42,42,43,43,44,44,45,45,46,46,47,47,48,48,49,49,50,50,51,51,52,52,53,53,54,54,57,57,58,58],"right_children":[2,4,6,8,10,12,14,16,18,20,22,24,26,28,30,32,34,36,38,40,42,44,46,48,-1,50,52,54,56,58,60,62,64,66,68,70,72,74,76,78,80,-1,82,84,86,88,90,92,94,96,98,100,102,104,106,-1,-1,108,110,-1,-1,-1,-1,-1,-1,-1,-1,-1,-1,-1,-1,-1,-1,-1,-1,-1,-1,-1,-1,-1,-1,-1,-1,-1,-1,-1,-1,-1,-1,-1,-1,-1,-1,-1,-1,-1,-1,-1,-1,-1,-1,-1,-1,-1,-1,-1,-1,-1,-1,-1,-1],"split_conditions":[1.0799006E0,6.405224E-1,1.6882641E0,-1.1897318E0,5.349203E-2,-8.9580196E-1,1.4533718E0,6.2089324E-1,1.200615E0,1.8948834E0,1.14918076E-1,6.7282355E-1,-7.073094E-1,2.2711666E0,1.2342846E0,4.1749248E-1,-6.846095E-1,1.2926604E0,8.245715E-1,-2.702699E0,1.1943656E0,-8.1848836E-1,-4.9992773E-1,1.0571626E0,-2.1354668E-1,-1.1328949E0,4.1606304E-1,-1.3878976E0,1.9998245E0,2.3415973E0,2.6567822E0,-1.6367404E0,7.999395E-1,-6.05597E-1,-6.3130987E-1,1.2131402E0,-2.0196755E0,-2.611158E0,-4.8292178E-1,-3.4407961E0,-2.8397676E-1,-2.1276306E-1,-4.0063903E-1,-1.7952566E-1,5.5212975E-1,3.5443592E-1,-1.1482239E0,-4.4806245E-1,7.3388E-1,-8.5261375E-1,-1.2207215E0,5.7312418E-2,1.3868483E0,-7.073094E-1,1.1533719E0,2.243376E-1,-1.3691813E-1,8.5744804E-1,1.4070908E0,-1.7514962E-1,-1.2539387E-3,2.4544649E-1,-6.7161038E-3,-1.7599688E-1,7.089257E-2,-2.0773178E-1,1.5233505E-1,-6.766174E-2,-1.9139713E-1,4.3368846E-2,-5.833224E-2,2.2569907E-1,-1.1353774E-1,2.0434363E-1,-1.6913813E-1,-6.4677976E-2,5.624113E-2,1.6367266E-1,-2.4424076E-1,1.6447465E-1,8.23012E-2,1.8740195E-1,-1.5438217E-1,2.2390474E-2,-1.7940435E-1,8.6374074E-2,4.995043E-3,9.529621E-2,-1.4803128E-1,-2.518412E-1,4.73097E-2,2.9295882E-2,-1.9884452E-1,1.4778677E-1,-1.7057078E-1,-1.3772392E-1,1.7639285E-1,5.504225E-3,-1.691096E-1,2.9166847E-2,-8.737457E-2,8.450627E-2,-1.0211855E-1,1.8069041E-1,-1.3419928E-1,-4.5395456E-2,-1.7875151E-1,1.7247105E-1,-1.6762364E-1,1.0515725E-1,3.91837E-1],"split_indices":[11,1,10,12,0,10,3,5,18,7,8,0,1,4,13,10,18,8,15,10,2,23,12,12,0,0,9,9,7,5,4,5,20,11,1,16,22,0,1,3,9,0,6,17,13,0,11,17,1,4,13,8,21,1,11,0,0,20,7,0,0,0,0,0,0,0,0,0,0,0,0,0,0,0,0,0,0,0,0,0,0,0,0,0,0,0,0,0,0,0,0,0,0,0,0,0,0,0,0,0,0,0,0,0,0,0,0,0,0,0,0],"split_type":[0,0,0,0,0,0,0,0,0,0,0,0,0,0,0,0,0,0,0,0,0,0,0,0,0,0,0,0,0,0,0,0,0,0,0,0,0,0,0,0,0,0,0,0,0,0,0,0,0,0,0,0,0,0,0,0,0,0,0,0,0,0,0,0,0,0,0,0,0,0,0,0,0,0,0,0,0,0,0,0,0,0,0,0,0,0,0,0,0,0,0,0,0,0,0,0,0,0,0,0,0,0,0,0,0,0,0,0,0,0,0],"sum_hessian":[1.0146493E4,9.31E3,8.3649286E2,6.826166E3,2.4838337E3,7.3215955E2,1.04333305E2,4.064592E2,6.419707E3,5.921762E2,1.8916577E3,8.787718E1,6.4428235E2,8.2240425E1,2.2092875E1,2.7239536E2,1.3406386E2,5.864038E3,5.5566907E2,5.78955E2,1.3221183E1,1.579539E3,3.121187E2,5.1909813E1,3.596737E1,1.5061555E2,4.936668E2,7.8646E1,3.594426E0,1.1532075E1,1.05608E1,2.2144067E2,5.0954678E1,1.6147762E1,1.179161E2,5.736173E3,1.2786511E2,1.0726333E2,4.484057E2,9.26903E0,5.69686E2,9.5434E0,3.6777835E0,1.2630393E2,1.453235E3,1.05949936E2,2.061688E2,3.1462074E1,2.0447739E1,4.798886E1,1.026267E2,2.7974496E2,2.1392183E2,3.162954E0,7.548305E1,1.9660492E0,1.6283767E0,6.6530075E0,4.879068E0,9.3531275E0,1.2076724E0,1.160788E1,2.098328E2,4.4721794E1,6.232882E0,7.553851E0,8.59391E0,2.8261106E1,8.965499E1,5.557766E3,1.7840692E2,7.3513036E0,1.2051381E2,3.398386E0,1.03864944E2,2.684233E2,1.7998239E2,1.4862134E0,7.7828164E0,2.4611504E2,3.2357092E2,1.4576207E0,2.2201629E0,9.199609E1,3.430784E1,1.2593157E3,1.9391934E2,2.0835396E1,8.511454E1,1.2589754E1,1.9357904E2,9.28833E0,2.2173744E1,1.6798607E1,3.6491318E0,1.8342556E1,2.9646303E1,1.4215486E1,8.841122E1,1.5131714E2,1.2842784E2,1.7697527E2,3.6946564E1,1.1059251E0,2.0570288E0,5.224669E0,7.025838E1,3.0784113E0,3.5745962E0,1.5622053E0,3.3168626E0],"tree_param":{"num_deleted":"0","num_feature":"25","num_nodes":"111","size_leaf_vector":"1"}},{"base_weights":[1.0252059E-1,8.5609905E-2,2.5325435E-1,1.1224689E-1,-2.160467E-4,3.8992175E-1,2.0905717E-1,3.4882203E-1,1.0062623E-1,-1.406233E-1,4.1105952E-2,1.1591446E-1,4.9095055E-1,3.7305053E-2,2.5185564E-1,2.361701E-1,5.106849E-1,8.27548E-2,2.6745793E-1,-4.8674414E-1,-8.525251E-2,-2.0945743E-3,2.1138766E-1,4.0291598E-1,-1.403108E-1,5.4223764E-1,2.3445308E-1,2.1690302E-1,-2.6781094E-1,2.0718078E-1,4.7332898E-1,1.07760206E-1,7.244111E-1,5.377804E-1,-1.5340438E-1,7.398921E-2,4.2188045E-1,6.551287E-1,2.1930094E-1,-6.2222415E-1,4.2542917E-1,2.8336555E-1,-1.4794448E-1,3.4846202E-1,-2.1106344E-2,3.2167628E-1,-1.2108101E-1,2.4113294E-1,2.6569375E-1,-3.8154215E-1,6.722397E-1,3.9459231E-1,6.976657E-1,-3.3877116E-1,4.7889808E-1,3.504114E-1,-2.4993455E-1,-4.1673613E-1,4.4906572E-1,3.016072E-1,1.0611305E-1,1.9864829E-1,6.252036E-1,6.832464E-2,-5.22247E-2,2.375258E-1,-1.4338672E-1,5.2880988E-2,1.8780105E-1,4.6717327E-2,1.2737724E-2,-1.4992538E-1,1.3968702E-1,2.0907298E-1,-1.7113696E-1,9.105683E-2,1.7879533E-2,1.11599356E-1,-1.9560178E-1,3.1899965E-1,-1.312395E-1,5.1378016E-3,3.1942093E-1,-5.1533323E-2,1.812332E-1,3.0709636E-1,4.6857E-2,-1.74041E-2,5.978184E-2,2.180506E-1,